+01.054 -00.551 +00.236 +00.593 -00.143 +00.528 -00.998 -00.326 +00.600 +00.266 +00.630 +00.379 -00.451 +00.166 -00.899 -00.846 -00.781 +00.450 -00.089 -00.980 -00.012 +00.496 -00.540 +00.154 -00.061 -00.539 -00.208 -00.886 -00.109 -01.064 +00.297 -01.352 -00.211 -00.015 +00.150 +00.376 -00.237 -00.222 -00.421 -00.227 -00.087 +00.163 -00.555 +01.170 -00.194 -00.414 -00.856 -00.514 +00.445 +00.292 -00.492 +00.630 -00.471 -00.392 -00.620 -00.863 +00.639 +00.815 -00.069 -00.478 +00.216 +01.097 +00.538 -00.899 
+00.264 -00.415 +00.424 -00.476 +00.371 -00.670 +00.168 +00.030 +00.341 +00.187 -00.008 +00.103 +00.450 +00.339 +00.240 +00.121 +00.168 +00.306 +00.012 +00.302 -00.382 -00.003 -00.091 +00.353 -00.384 -00.062 -00.340 +00.189 +00.448 +00.390 +00.288 +00.265 +00.441 +00.335 +00.181 +00.282 +00.518 -00.043 -00.084 +00.214 -00.154 +00.484 -00.210 -00.239 +00.357 +00.509 +00.349 -00.148 +00.296 -00.115 -00.220 +00.440 -00.350 +00.155 +00.245 -00.425 -00.417 +00.316 +00.204 -00.397 +00.349 -00.016 +00.437 +00.156 
+00.355 +00.861 +00.804 -00.276 -00.354 -00.692 -00.260 -00.334 -01.358 +00.343 -01.355 +02.125 -00.679 -00.126 -00.146 +00.629 +02.066 -01.172 -00.216 +00.053 -00.258 +00.382 -00.711 -01.578 +00.708 +00.358 +00.099 -00.013 -00.498 -00.054 +00.396 -00.089 -00.080 -00.535 -00.001 +00.166 +00.208 -00.971 -00.198 -00.310 -00.787 +00.570 -00.118 +00.018 -00.203 -00.147 -00.065 -00.712 -01.191 -00.284 +00.330 -00.243 -00.082 +00.432 -00.505 +00.564 -01.169 +00.259 -00.029 -00.131 +00.569 -00.025 +00.302 +00.460 
+00.355 -00.382 -01.012 -00.698 -00.550 +00.822 +00.745 -00.986 -00.244 -00.515 +00.530 +00.101 +00.023 -00.217 -00.895 -01.018 -01.297 +00.008 +00.355 -01.357 -00.779 -00.241 +00.719 +00.995 +00.716 +00.523 -00.268 -00.427 +00.590 +00.670 +00.238 -00.640 -00.809 +01.158 +00.577 +00.368 +00.524 +00.096 -00.444 +00.928 +00.264 -00.389 +00.732 -00.953 -00.077 +00.497 +00.223 -00.074 -01.010 -00.075 +00.497 -00.441 -00.365 -00.479 +00.640 +00.362 -00.308 +00.426 -00.462 -00.487 -01.559 +00.030 -00.042 -00.106 
-00.244 +00.801 +00.574 +00.854 +00.387 +00.489 -01.204 +00.549 +00.817 +00.695 -00.274 +00.208 -00.303 +00.625 -00.556 +00.901 -00.348 -00.763 -00.223 +01.189 +00.141 +00.421 -00.552 +00.073 -00.280 -01.497 +00.304 -00.217 -00.325 -00.032 -00.584 -00.568 +00.729 +00.134 +00.802 +00.248 -00.544 +00.644 +00.141 -01.785 -00.038 +00.384 -00.897 +00.316 -00.024 -00.633 +00.307 +00.558 +00.662 -00.347 -00.482 -00.795 +00.798 -00.469 +00.019 -01.033 +01.474 -00.479 -00.657 -00.284 +01.773 +01.446 -00.532 +00.495 
-00.651 +00.224 -00.886 +00.008 -00.050 +00.254 +00.638 +00.159 +00.025 -00.510 +00.567 -01.213 +00.482 -00.458 +00.538 +00.139 -01.122 +00.421 +00.234 +00.369 -00.602 -00.279 +00.064 +00.802 -00.089 -00.312 -00.158 +00.241 +00.303 +00.640 -01.052 -00.595 +00.330 +00.022 +00.348 -00.080 +00.500 +00.282 +00.167 +00.006 +00.462 -00.323 -00.540 -00.728 +00.375 +00.079 +00.414 +00.731 +00.093 -00.247 +00.221 -00.374 +00.045 -00.179 +00.976 -00.486 -00.175 -00.288 +00.255 +00.659 -00.350 -00.724 -00.514 +00.153 
-00.118 +00.156 +00.402 -00.374 -00.020 +00.728 -00.021 -00.706 -00.327 -00.038 -00.384 +00.084 -00.308 -00.329 +00.548 +00.734 +01.098 -00.147 +00.247 +01.108 -00.214 +01.014 +00.038 -00.543 -00.248 -00.710 +00.114 -00.186 -00.677 -00.402 +01.026 +00.277 +00.189 -00.736 -00.294 -00.162 +00.074 -00.426 -00.592 -00.009 -00.550 +00.210 -00.599 -00.298 -00.275 -01.396 -00.155 -00.111 -00.512 -00.502 -00.340 +00.195 +00.348 +00.429 -00.481 +00.404 -01.165 +00.126 +00.874 +00.367 +00.299 +00.292 -00.582 -00.065 
-00.082 +00.581 +00.902 +00.389 -00.650 -00.779 -01.014 +00.335 +00.317 -00.078 +00.447 -00.307 -00.230 -00.046 -00.203 -00.240 -01.202 +00.536 -00.186 -00.411 +00.131 +00.065 -00.151 +00.686 +00.828 +00.247 +00.527 +00.252 +00.138 -00.439 -01.296 -00.219 -00.812 +00.044 +00.060 -00.812 +00.599 -00.100 +00.979 -00.873 +00.544 +00.403 -00.174 +01.014 -00.439 +00.007 -01.086 +00.042 +01.666 -00.211 +00.152 +00.305 +00.609 +00.270 -00.028 -00.859 +02.076 +00.200 -00.036 -00.052 +01.233 +00.691 +00.812 +00.054 
+00.395 +00.322 +00.857 -00.715 +00.813 -00.441 +00.758 -00.166 +00.662 -00.094 +00.213 +00.937 +01.373 -00.456 -01.421 +00.142 +00.191 -00.520 -00.239 +00.593 -00.043 -00.496 -01.062 -01.444 +00.161 -00.428 +00.195 -00.840 -00.275 +00.112 +00.507 +00.777 +00.382 +01.907 -00.464 +01.203 -00.105 -00.276 +00.664 -00.075 -00.634 +00.647 +01.588 +00.075 +00.219 +01.385 -00.470 -01.034 -00.395 -00.232 -00.783 +00.506 -01.473 -00.309 +00.324 -00.299 +00.016 +00.350 -00.227 +00.489 -02.043 -00.349 +00.445 +00.104 
+00.475 -00.412 -00.905 +00.128 -00.326 -00.857 -00.286 -00.655 -00.034 -00.025 +00.202 -00.110 -01.333 +00.313 +00.988 -00.558 -00.736 +00.976 +00.007 -00.497 +00.090 +00.044 +00.069 +00.172 +00.818 +00.914 -00.144 +00.688 -00.368 +00.002 -01.392 -01.592 -00.603 -00.979 -00.357 -01.545 +00.591 -00.215 -00.124 -00.164 +00.310 -00.479 -01.721 +00.906 -00.060 -01.244 +01.244 -00.599 +01.434 -00.578 +00.599 +00.387 +00.768 -00.430 +00.003 +00.189 +00.253 -00.073 +00.591 -00.173 +01.264 +00.696 +00.703 -00.317 
-00.269 -00.991 +00.155 -00.168 +00.444 -00.224 -00.133 -00.473 -00.945 -00.366 -00.010 -00.612 +00.099 +00.042 +00.834 -00.375 +00.836 +00.514 -00.647 -01.434 +00.371 -00.136 -00.017 +00.354 -00.138 +00.384 -00.270 +00.715 -00.381 +00.092 +00.295 -00.189 +00.060 -00.843 -01.447 -00.155 +00.137 -00.179 +00.504 -00.229 -00.322 -00.318 -00.077 +00.622 -00.155 +00.204 -00.763 -00.194 +00.521 +00.096 -00.855 +00.712 +00.855 +00.175 -00.855 -00.372 -00.520 -00.414 -00.257 -00.034 +00.684 -00.254 -00.279 -00.206 
-01.339 +00.863 +00.363 -00.092 +00.006 -00.184 +01.002 +00.989 -00.395 +00.089 +00.532 -01.100 +00.685 +00.375 -00.247 +00.342 +00.230 -00.708 -00.458 -00.386 +00.016 -00.220 +00.391 +00.376 -00.608 -00.809 +00.045 +00.265 -00.468 +00.465 -00.091 +01.218 +00.130 -00.040 -00.712 +00.598 +00.339 -00.192 -00.246 +00.191 -01.302 -00.816 -00.694 +00.074 -00.101 +00.064 +00.263 +00.769 -00.841 -00.411 -00.578 +00.494 -00.588 -00.032 -00.180 -00.156 +00.601 +00.059 +00.264 +00.198 -00.789 -00.400 -00.755 +00.584 
-00.894 +00.060 +00.480 +00.456 +00.068 -00.326 +00.797 +00.539 -00.068 +00.488 +00.003 -01.596 +01.035 +00.137 -00.172 +00.634 +00.388 -00.113 -00.406 -00.268 +00.154 -00.321 +00.569 +00.276 -00.992 -00.243 +00.603 +00.607 -00.690 -00.147 +00.275 +01.059 -00.038 +00.757 -00.313 +00.396 -00.044 -00.023 -00.163 -00.297 -01.092 -00.617 -00.398 +00.069 +00.104 -00.022 -00.708 +00.244 -00.314 +00.279 -00.714 +00.240 -01.135 +00.151 -00.015 -00.076 +00.255 +00.294 -00.386 +00.455 -01.397 -00.729 -00.211 -00.061 
+01.037 -00.441 +00.768 -00.221 +00.177 +00.400 -00.615 +00.604 -00.298 -00.066 -01.123 +00.625 -00.412 -00.191 -00.314 -00.013 +00.774 +00.212 -00.325 -01.184 -00.194 +00.105 -00.257 +00.487 -00.338 +00.054 +00.596 -00.610 +00.777 -00.293 +01.256 +00.999 -00.574 +00.132 -00.118 +00.909 +00.079 -00.170 +00.836 -00.524 -00.498 +00.374 +01.867 +00.470 -00.197 -00.344 -02.300 +00.071 -00.570 +00.039 -00.691 +00.801 -00.386 +00.191 -01.099 +00.317 -00.052 +00.679 +00.047 -00.259 -00.078 -00.492 -00.358 -00.022 
-00.641 -00.029 -00.293 +00.212 +00.474 +00.429 +00.135 +00.875 +01.425 -00.365 +01.466 -00.557 +01.038 +00.586 -01.237 +00.101 -01.043 +00.859 -00.198 +00.535 +00.443 -00.671 +00.343 +01.519 -00.962 -00.695 -00.201 -00.729 +00.352 -00.736 -00.313 -00.207 +00.196 +01.266 +00.521 +01.664 -00.364 +00.531 -00.307 -00.013 -00.697 -00.999 +00.138 +00.515 +00.128 +00.726 -00.087 +00.764 +00.131 +01.403 -00.713 -00.093 -00.637 -00.286 +01.204 -01.094 +01.289 +00.138 -00.283 +00.099 -01.149 +00.526 -00.482 -00.353 
+00.102 -00.387 +00.576 +00.113 +00.370 -00.771 -00.635 +00.137 +00.063 -00.887 -00.051 -00.276 -00.073 +00.465 +00.133 -00.235 -00.387 +00.638 -00.222 -00.206 +00.456 -00.335 -00.460 -00.270 -00.018 -00.600 +00.001 -00.088 +00.009 -00.181 -00.114 -00.088 -00.630 +00.286 -00.324 +00.511 +00.564 -00.662 +00.251 -00.955 -00.361 +00.138 +00.772 +01.384 -00.139 +00.012 -01.203 -00.160 +00.994 -00.346 -01.244 +00.350 +00.120 +00.205 -00.533 -00.973 +01.593 +00.763 -00.636 -00.553 +00.723 +00.398 +00.242 -00.153 
+00.164 -00.080 -00.151 -00.325 +00.234 +00.165 -00.047 -01.131 +00.316 -00.246 +00.543 -00.579 +00.525 -00.058 -00.220 -00.021 -00.208 +00.219 +00.599 +00.407 +00.510 +00.520 -00.640 -00.482 -00.191 -00.302 +00.628 +00.057 -00.223 +00.050 -00.252 -01.156 +00.395 +00.350 -00.262 +00.022 +00.476 -00.228 -00.133 +00.062 +00.176 -00.678 -00.766 +00.549 +00.444 -00.110 +00.896 -00.734 +00.009 +00.128 -00.390 +00.625 -00.955 -00.606 +00.385 -00.114 -00.339 +00.202 -00.123 +00.698 -00.544 +00.692 +01.023 -00.637 
+00.736 -00.526 -00.527 -00.089 +00.270 -00.039 +00.169 -00.550 +00.334 -00.610 -00.250 -00.559 -00.151 -00.522 -00.245 -00.970 -01.808 +00.422 +00.234 -00.900 +00.292 -00.123 +00.012 +00.117 +00.871 +00.526 -00.560 -00.814 +00.197 -00.111 -00.721 -01.138 +00.001 +01.030 +00.545 +00.027 +00.351 +00.495 -00.270 +00.100 +00.734 -00.441 +00.398 -00.647 +00.003 +00.148 +00.852 -00.145 -00.018 +00.047 +00.545 -00.596 -00.184 -00.798 +00.480 -00.095 -00.250 +00.113 -00.269 +00.004 -00.374 +00.395 +00.717 -00.370 
+00.378 -00.198 +00.388 +00.672 -00.121 +00.596 -01.365 +00.254 +00.420 +00.073 +00.493 +00.145 -00.309 +00.048 +00.074 +00.532 -00.123 -00.034 -00.538 +01.566 +00.237 +00.336 +00.236 +01.218 -00.687 -01.311 -00.048 -00.463 -00.254 -00.516 +00.371 +00.509 +00.845 -00.989 +00.099 +00.208 -01.522 +00.774 -00.696 -00.907 -00.140 +00.356 +00.437 -00.266 +00.652 +00.079 +00.268 +00.109 -00.377 +00.581 +00.233 +00.190 +01.418 +00.595 +01.045 -00.564 +00.012 -00.460 +00.194 -00.022 +01.861 +00.239 -00.792 +00.159 
-00.958 +01.064 +00.591 -00.051 -00.436 -00.039 -00.010 +00.614 -00.187 -00.985 -00.385 -00.794 +00.359 +00.354 -00.313 +00.317 -00.747 -00.284 -00.405 +00.178 +00.388 -01.238 -00.601 -00.183 +00.183 +00.013 -00.516 +00.351 -00.285 +00.129 -00.720 +00.287 -00.489 +00.946 +00.034 -00.211 +00.243 -00.683 -00.249 -00.828 -00.682 -00.141 +00.035 +00.295 -00.452 +00.754 -00.243 -00.406 +00.179 +00.268 -00.624 -00.024 -00.297 -00.479 +00.053 +00.149 +01.703 -00.423 -00.349 +00.474 -00.819 -00.469 -00.152 -00.203 
+01.119 -00.329 +00.142 -00.273 -00.293 +00.629 -00.026 -00.210 -00.284 +00.423 -00.504 -00.202 -00.185 -00.180 -00.421 -01.208 -00.813 -00.049 +00.041 -00.523 +00.051 +00.272 -00.337 +00.130 +00.342 +00.671 -00.256 -00.114 +00.425 +00.465 -00.082 -00.494 -00.724 +00.591 +00.553 -00.164 +00.354 -00.224 +00.434 -00.141 +00.071 +00.639 +00.364 +00.043 -00.784 +00.370 -01.058 -00.287 -00.590 -00.380 +00.677 -00.101 -00.558 -00.507 +00.250 +00.258 -00.382 +00.336 -00.345 -00.318 -00.595 +00.159 -00.023 -00.542 
+00.103 -00.907 -00.200 +00.080 +00.107 -00.201 -01.330 -00.233 +00.755 -00.735 -00.094 +01.102 +00.380 -00.230 -00.046 +00.179 +00.192 +00.826 +00.088 +01.278 +00.547 +00.342 -00.160 -00.178 -00.946 +00.178 -00.608 -00.743 -00.308 -00.453 +00.039 +00.608 +01.488 -00.221 -00.813 -00.009 -00.641 +00.112 +00.076 -00.871 +00.047 +00.561 +01.090 -00.028 +00.873 +00.733 +00.401 -00.311 +00.583 +00.947 -00.817 +00.262 +00.361 +00.505 +01.423 +00.148 -00.111 -00.516 -00.484 -00.730 +00.947 -00.422 -00.043 +00.158 
-00.511 +01.145 +00.539 -00.329 -00.138 -00.334 -00.404 +00.722 +00.430 +00.097 -00.616 +00.715 -00.266 -00.615 -00.654 -00.051 +00.173 -00.765 +00.298 +00.077 -00.319 -00.431 -00.547 -00.479 +00.478 -00.637 -00.204 -00.039 +00.345 -00.222 -00.335 +00.396 -00.795 +00.289 +00.152 +00.253 +00.039 -00.356 -00.258 -00.360 +00.180 +00.602 +00.132 -00.256 -00.396 +00.601 -00.063 -00.207 -00.009 -00.103 +00.705 -00.596 -00.125 -00.562 -00.365 -00.508 +00.544 +00.411 -00.243 -00.528 -00.672 +00.106 -00.595 -00.030 
-00.675 -00.166 +00.063 -00.214 -00.699 -00.574 +01.232 -00.141 -00.379 +00.156 -00.085 -01.152 -00.600 -00.362 +01.176 -00.637 +00.301 -00.046 -00.445 -01.445 +00.248 -00.338 +00.574 +00.389 +00.812 +00.227 -00.081 +01.360 +00.637 +00.601 -01.092 +00.077 -00.474 -00.981 +00.083 -00.598 +00.934 +00.462 -00.547 +00.014 +00.043 -00.061 -00.573 -00.656 +00.344 -00.232 +00.607 +00.737 -00.231 -00.757 +00.601 -00.568 +00.805 -00.486 -00.632 +00.682 +00.144 -00.290 +00.029 +00.016 -00.297 -00.462 +00.108 +00.417 
-00.416 +00.038 -00.795 -00.460 -00.164 +00.552 +00.675 -00.659 -00.092 +01.233 +00.602 -01.463 +00.221 +00.264 +00.631 +00.415 +00.629 -00.569 +00.061 +00.967 +00.037 +01.034 +00.981 +00.056 -00.154 -00.273 +00.040 +00.786 -00.492 +00.187 -00.348 -00.906 +00.069 +00.143 +00.361 +00.102 -00.169 +01.002 -00.873 +00.852 +00.190 -01.990 -01.891 -00.857 +01.235 -00.911 +01.926 +00.830 +00.106 -00.665 +00.758 -00.392 -00.659 -00.712 +00.357 +00.846 -01.621 -00.957 +00.584 +00.631 -00.284 +00.455 -00.460 +00.317 
+00.731 -00.101 -00.797 +00.168 -00.067 -00.360 +00.183 -00.022 -00.545 -00.461 -00.284 +00.358 -00.923 -00.497 -00.360 -00.262 -00.800 -00.796 +00.284 -00.097 +00.453 -01.353 -00.968 -00.396 +00.476 +01.484 -00.071 -00.321 +00.538 -00.486 -00.280 -00.210 -00.268 -00.346 +00.135 -00.563 -00.838 +00.305 -00.128 -00.062 +01.283 +01.299 +01.220 -00.806 -00.007 +01.533 -00.368 -00.764 -00.449 -00.015 +01.172 -00.125 +00.443 +00.946 -00.012 +00.510 +00.472 -00.481 -00.197 -00.205 -00.421 -00.332 +00.119 +00.716 
-00.655 -00.801 -00.133 +00.135 +00.447 -00.306 -00.854 -00.235 -00.244 +00.294 +00.745 -00.565 +00.394 -00.236 +00.565 +00.168 +00.477 +00.304 +00.102 -00.634 +00.396 +00.620 +00.625 +00.298 -00.592 +00.180 +00.356 -00.191 -00.039 -00.225 -00.300 +00.087 +00.500 -00.405 -00.893 -00.158 -00.068 -00.186 -00.059 -00.045 -00.281 -00.546 -00.445 +00.762 +00.820 -00.697 +00.362 +00.104 -00.146 +00.160 -00.593 -00.095 +00.165 -00.417 +00.318 -00.251 -00.809 -00.103 +00.426 +00.164 +00.049 +00.187 -00.018 -00.124 
+00.155 +00.097 -00.766 +00.026 -00.280 -00.310 -00.609 -00.671 +00.631 +00.161 +00.330 +00.513 -00.096 -00.307 +00.408 -00.612 -00.281 +00.513 -00.169 +00.503 -00.244 +00.459 -00.194 -00.291 +00.515 +00.926 +00.139 +00.243 +00.190 -00.370 -00.378 -01.539 -00.225 -00.498 +00.318 -00.485 +00.145 +00.092 -00.667 +00.077 +00.545 +00.012 -01.379 -00.273 +00.532 -00.344 +00.746 -00.397 +00.412 -00.230 +00.377 -00.677 +00.203 -00.252 +00.203 -00.003 +00.078 +00.258 +00.304 -00.271 +00.406 +00.160 +00.208 -00.155 
-01.066 +00.810 +00.281 +00.427 -00.061 +00.237 -00.078 +01.072 +00.269 +00.678 +00.074 +00.399 -00.175 -00.214 +00.145 +01.349 +00.944 -01.516 -00.485 +02.279 +00.103 +00.103 +00.256 -00.692 -01.052 -00.941 +00.359 +00.124 -01.056 -00.002 +00.179 +00.455 +01.115 -00.267 +00.972 +00.481 -01.069 +01.012 -00.527 -00.838 -00.311 +00.192 -00.550 -00.257 -00.233 -00.564 +00.765 +00.631 +00.018 +00.442 +00.147 -00.713 +00.252 -00.099 -00.417 +00.171 -00.840 -00.247 +00.009 -00.235 +00.491 -00.163 -00.721 +00.524 
+00.257 -00.039 -00.117 -00.243 -00.139 +00.462 -00.472 +00.336 -00.122 -00.706 -00.101 -00.349 +00.248 -00.475 -00.578 +00.063 +00.016 -00.609 -00.445 -00.182 -00.269 -00.131 -00.490 +00.119 +00.198 -00.193 +00.067 +00.105 +00.288 -00.316 -00.367 +00.466 +00.125 -00.477 +00.404 -00.334 -00.325 +00.670 +00.166 -00.505 +00.354 +00.636 +00.568 +00.093 -00.696 -00.389 -00.847 +00.523 -00.427 +00.162 -00.570 -00.375 +00.456 -00.099 -00.118 +00.338 +00.750 -00.419 -00.250 -00.065 -00.133 +00.001 -00.641 +00.582 
-00.451 +01.739 +00.455 -00.253 +00.667 -00.733 +00.606 +00.303 -00.333 -00.219 -00.503 -01.503 +01.096 +00.061 -00.617 +00.326 -00.065 -00.714 -00.259 +00.217 +00.102 -00.126 -00.251 -01.425 -00.043 +00.127 +00.155 +00.318 -00.904 -00.169 -00.866 -00.014 +00.573 +01.625 -00.212 +00.421 +00.283 -00.536 +00.166 +00.550 -01.114 -00.599 -00.729 +00.416 +00.002 -00.495 +00.036 -00.566 +00.179 -00.910 -00.409 +00.262 -01.318 -00.879 -00.206 +00.030 +00.109 -00.945 -00.487 +00.540 -01.532 -00.803 +00.380 -00.682 
-00.590 -01.278 +00.430 +00.114 -00.328 +00.078 -00.777 -00.208 -00.893 -00.314 -00.471 -00.241 -00.087 -00.222 +01.424 -00.438 +01.026 +01.239 -00.398 -00.986 -00.314 -00.178 +01.049 +00.263 -00.588 -00.072 +00.070 +00.255 -00.288 -00.500 +00.694 -00.360 +00.016 -02.153 -01.045 -00.276 -00.196 +00.045 -00.388 -00.573 -00.339 -00.805 -00.299 +00.253 +00.241 -00.811 -00.744 +00.400 -00.045 +00.251 -00.423 +00.750 +00.981 +00.692 +00.245 +00.278 -00.987 -00.163 +00.273 -00.397 +01.145 -00.301 -00.651 -00.209 
