+00.340 -00.106 +00.283 +00.298 +00.412 -00.302 -00.165 +00.268 -00.222 +00.054 -00.023 +00.129 -00.135 +00.013 +00.452 +00.416 +00.136 +00.217 -00.358 +00.107 -00.484 -00.257 -00.363 +00.304 -00.343 -00.099 -00.370 -00.391 +00.499 -00.282 +00.013 +00.339 +00.113 -00.204 +00.138 +00.024 -00.006 +00.473 -00.207 +00.272 +00.027 +00.270 -00.099 +00.396 -00.214 -00.147 +00.310 +00.419 -00.430 +00.449 +00.027 -00.413 -00.308 +00.163 +00.390 -00.151 -00.436 -00.480 -00.042 -00.437 -00.262 +00.471 +00.402 +00.351 -00.232 +00.052 -00.107 +00.273 +00.030 +00.187 +00.060 -00.416 -00.020 +00.455 +00.439 +00.227 -00.211 +00.239 +00.141 -00.146 +00.188 -00.334 -00.060 +00.380 +00.329 -00.170 -00.271 +00.393 -00.150 +00.187 +00.457 +00.092 +00.171 +00.391 -00.012 +00.473 -00.061 +00.343 +00.220 +00.480 +00.058 -00.228 +00.477 +00.432 -00.352 +00.382 +00.142 -00.068 +00.124 -00.219 +00.286 -00.193 -00.053 -00.274 -00.312 -00.226 +00.049 -00.089 -00.336 +00.387 -00.409 -00.353 -00.013 +00.218 +00.435 +00.432 +00.221 -00.071 +00.278 -00.074 -00.167 -00.263 +00.060 -00.247 -00.327 +00.247 -00.373 +00.294 -00.336 +00.245 -00.425 +00.450 -00.447 +00.020 -00.335 -00.291 +00.237 +00.127 +00.050 +00.322 -00.057 +00.104 -00.501 -00.366 +00.102 -00.313 -00.373 -00.224 +00.041 +00.327 +00.038 +00.244 -00.469 -00.356 +00.475 -00.307 +00.390 -00.375 +00.498 -00.446 +00.370 -00.435 -00.538 +00.319 -00.054 -00.482 -00.505 -00.297 +00.239 +00.221 -00.132 +00.202 +00.538 +00.481 +00.622 -00.011 +00.242 +00.306 -00.180 +00.410 -00.001 +00.329 +00.193 +00.107 -00.471 +00.246 +00.333 +00.426 +00.373 +00.319 +00.407 +00.098 +00.217 +00.302 +00.000 -00.186 -00.330 +00.496 +00.677 +00.003 +00.812 +00.503 +00.689 +00.131 +00.343 -00.128 -00.193 -00.398 -00.567 +00.050 -00.356 +00.109 -00.000 +00.470 -00.220 +00.046 +00.218 -00.399 -00.103 -00.066 +00.242 -00.263 -00.267 +00.368 +00.190 -00.203 +00.198 +00.521 +00.841 +00.166 +00.360 +00.094 +00.030 -00.244 +00.030 -00.557 -00.046 -00.551 -00.150 +00.158 +00.165 +00.137 -00.153 -00.315 +00.105 +00.107 +00.155 -00.312 +00.117 -00.401 +00.418 +00.387 +00.489 -00.035 +00.160 -00.224 -00.076 +00.323 -00.087 -00.580 -00.408 -00.167 -00.101 -00.113 +00.034 -00.231 +00.266 -00.235 -00.172 -00.311 +00.484 -00.496 +00.322 -00.197 -00.377 -00.159 +00.387 +00.403 +00.327 +00.519 -00.060 +00.309 -00.156 +00.224 +00.279 +00.085 +00.021 -00.460 +00.310 +00.100 -00.270 +00.312 +00.396 +00.380 +00.005 +00.075 -00.338 -00.226 +00.365 -00.008 -00.044 +00.319 -00.051 -00.275 -00.367 +00.229 +00.304 -00.109 +00.237 -00.025 +00.223 +00.055 -00.458 -00.449 -00.175 -00.371 -00.281 +00.016 -00.104 +00.450 +00.425 +00.160 +00.355 +00.326 -00.004 -00.165 -00.106 +00.158 +00.101 -00.250 -00.382 -00.504 -00.473 +00.136 -00.100 -00.131 -00.258 -00.577 -00.185 +00.387 +00.163 -00.158 +00.248 +00.387 +00.080 -00.224 +00.407 +00.194 +00.027 -00.261 +00.076 -00.062 +00.334 -00.106 -00.256 -00.174 +00.220 +00.136 +00.442 -00.253 +00.299 -00.418 -00.153 -00.544 +00.124 +00.109 -00.187 -00.197 +00.587 +00.468 -00.292 -00.016 +00.479 +00.195 -00.371 -00.043 +00.387 -00.359 -00.376 -00.100 -00.195 +00.157 +00.309 -00.368 -00.450 -00.452 -00.101 +00.184 +00.069 -00.184 -00.563 -00.096 -00.160 -00.163 +00.056 -00.049 +00.030 +00.564 +00.008 -00.452 -00.048 -00.185 -00.041 +00.007 -00.257 +00.381 -00.393 -00.395 +00.424 -00.330 -00.018 -00.275 +00.327 -00.229 -00.203 +00.263 -00.295 +00.118 -00.065 -00.641 -00.317 +00.234 +00.121 +00.438 -00.105 -00.265 -00.394 -00.103 -00.606 -00.152 +00.003 +00.083 -00.318 -00.069 -00.147 -00.059 -00.270 -00.114 +00.033 -00.345 +00.055 -00.509 -00.184 -00.225 -00.331 +00.093 -00.335 +00.172 +00.212 +00.701 +00.309 +00.339 +00.107 -00.246 -00.042 -00.753 -00.264 +00.026 -00.186 -00.027 -00.027 -00.090 -00.124 +00.223 +00.300 +00.178 -00.347 -00.467 -00.437 +00.161 -00.359 +00.065 +00.145 +00.090 -00.377 -00.258 +00.171 +00.074 +00.318 +00.322 -00.383 -00.258 -00.092 +00.049 -00.050 -00.310 +00.226 -00.451 -00.372 +00.023 +00.340 +00.173 +00.401 -00.309 -00.105 +00.206 +00.364 +00.013 +00.195 +00.426 -00.190 +00.622 +00.382 +00.855 +00.461 +00.473 +00.681 +00.351 +00.418 +00.135 +00.007 +00.205 +00.247 -00.204 +00.281 +00.008 +00.112 +00.299 +00.293 +00.296 -00.238 +00.103 -00.029 -00.333 +00.284 +00.319 +00.311 +00.152 -00.020 +00.281 +00.411 +00.582 +00.505 +00.119 +00.338 -00.340 +00.305 +00.134 +00.201 -00.214 -00.555 -00.007 -00.020 -00.469 +00.300 -00.099 +00.148 -00.047 -00.356 -00.087 -00.253 -00.094 -00.492 +00.169 -00.011 +00.256 +00.073 -00.017 +00.146 +00.782 -00.096 -00.112 +00.312 +00.209 -00.165 -00.240 +00.047 +00.224 +00.107 +00.011 -00.042 +00.354 +00.443 +00.451 +00.402 +00.269 -00.166 +00.037 -00.281 -00.023 +00.444 -00.065 +00.279 +00.334 -00.393 -00.077 +00.321 +00.381 +00.560 -00.095 +00.405 +00.548 -00.108 -00.072 -00.034 -00.085 +00.032 -00.331 -00.036 -00.133 +00.157 +00.436 -00.280 +00.109 +00.366 -00.390 -00.126 -00.301 +00.142 +00.073 +00.111 -00.008 -00.542 -00.003 +00.030 -00.280 -00.462 -00.128 -00.402 +00.466 +00.138 +00.216 +00.257 +00.322 -00.457 -00.086 +00.018 +00.348 +00.171 +00.483 -00.337 -00.204 +00.383 -00.134 +00.399 +00.248 -00.024 -00.243 +00.412 -00.439 +00.270 +00.007 +00.164 +00.396 -00.326 -00.238 -00.282 -00.243 +00.129 -00.397 -00.409 -00.390 +00.295 -00.499 -00.292 -00.302 +00.010 +00.152 +00.414 -00.398 +00.114 -00.429 -00.106 -00.004 -00.063 -00.212 -00.261 +00.383 -00.013 -00.396 -00.575 -00.107 +00.375 +00.283 -00.063 +00.602 -00.438 +00.008 -00.303 +00.130 +00.225 -00.114 +00.468 +00.203 -00.121 -00.433 +00.265 +00.303 +00.199 +00.182 +00.404 -00.187 +00.252 -00.202 +00.305 -00.328 +00.065 -00.467 -00.418 -00.292 -00.218 -00.359 +00.185 -00.378 +00.362 +00.390 -00.437 +00.504 +00.115 -00.132 +00.160 -00.259 +00.123 -00.007 +00.320 +00.426 +00.027 +00.082 +00.229 -00.275 -00.236 +00.134 +00.038 -00.494 +00.410 -00.167 -00.294 +00.061 -00.082 -00.195 +00.203 +00.171 -00.027 -00.272 +00.140 -00.181 -00.264 +00.283 -00.223 +00.212 -00.470 +00.349 +00.352 +00.101 -00.179 +00.168 +00.027 +00.348 -00.250 -00.244 -00.427 +00.014 +00.389 +00.107 +00.022 +00.313 +00.446 +00.229 -00.162 -00.147 -00.446 -00.486 -00.512 -00.027 -00.208 +00.211 +00.322 +00.008 -00.029 -00.422 -00.309 -00.016 +00.423 -00.457 
-00.416 -00.255 +00.211 +00.111 -00.407 +00.462 +00.367 -00.334 -00.024 +00.257 +00.278 -00.493 +00.079 +00.236 +00.244 +00.423 -00.404 +00.288 +00.446 -00.399 -00.225 -00.261 +00.310 -00.405 +00.247 -00.223 -00.327 +00.438 +00.261 -00.403 +00.481 +00.345 -00.158 +00.192 -00.043 -00.066 +00.153 -00.178 +00.099 -00.372 -00.422 -00.126 -00.365 +00.158 -00.387 +00.372 +00.075 -00.291 +00.167 +00.028 -00.193 +00.437 +00.268 -00.378 -00.462 +00.015 -00.101 -00.288 -00.047 -00.340 -00.192 -00.066 -00.495 +00.149 -00.385 -00.056 -00.425 +00.279 +00.280 +00.148 +00.374 +00.339 -00.476 -00.496 -00.022 -00.359 +00.405 -00.404 -00.121 +00.093 +00.139 +00.200 +00.039 -00.093 +00.322 +00.078 +00.422 -00.278 +00.289 -00.126 -00.119 -00.400 +00.294 -00.117 +00.267 +00.454 +00.346 +00.291 +00.096 +00.029 -00.051 +00.000 -00.133 -00.046 +00.107 -00.488 +00.253 +00.107 -00.357 -00.356 -00.304 +00.277 +00.344 +00.235 -00.316 +00.166 -00.189 -00.401 +00.386 -00.375 +00.015 -00.166 -00.189 -00.081 +00.261 +00.427 -00.386 -00.123 +00.169 +00.253 -00.523 -00.341 -00.003 +00.130 +00.352 -00.288 +00.169 +00.130 +00.333 +00.313 +00.273 -00.472 +00.090 +00.117 +00.262 +00.279 -00.182 -00.364 +00.444 -00.232 -00.135 +00.108 +00.095 -00.142 +00.074 -00.549 -00.382 +00.218 +00.046 -00.367 +00.338 +00.247 -00.131 -00.165 -00.118 -00.239 +00.099 -00.432 +00.402 -00.068 +00.379 +00.174 -00.039 -00.008 -00.174 -00.239 -00.212 +00.125 -00.078 -00.214 +00.346 +00.104 +00.168 -00.175 +00.434 -00.209 -00.028 -00.064 -00.304 +00.444 -00.227 +00.308 +00.162 +00.193 -00.318 -00.456 +00.459 +00.275 -00.388 +00.362 -00.288 +00.475 -00.016 +00.083 -00.077 +00.223 +00.272 +00.118 -00.119 -00.159 +00.500 -00.225 +00.350 +00.076 +00.016 +00.261 +00.145 +00.249 +00.260 -00.046 +00.051 -00.466 -00.216 -00.309 +00.191 -00.058 -00.267 +00.153 -00.284 -00.237 -00.145 -00.279 -00.406 -00.693 -00.679 +00.146 +00.329 +00.418 -00.248 -00.499 -00.463 -00.034 +00.037 +00.351 +00.321 +00.408 -00.068 -00.366 -00.096 -00.378 +00.108 +00.468 -00.391 +00.367 -00.342 +00.290 -00.221 -00.225 -00.211 -00.227 -00.070 +00.162 +00.306 -00.413 -00.570 -00.802 -00.247 -00.159 -00.826 -00.057 -00.282 -00.218 +00.404 +00.220 -00.412 -00.045 -00.094 -00.056 +00.104 +00.336 +00.063 -00.300 +00.300 +00.126 -00.516 +00.311 -00.213 -00.360 -00.396 +00.295 +00.463 -00.401 +00.069 -00.266 -00.960 +00.016 +00.247 -00.333 +00.289 +00.540 +00.043 -00.384 -00.305 -00.254 +00.135 -00.240 +00.249 -00.464 +00.222 -00.151 +00.361 -00.271 -00.021 +00.096 +00.321 +00.038 -00.066 -00.119 -00.385 +00.368 -00.467 -00.070 -00.691 -00.311 +00.371 -00.093 -00.334 +00.351 -00.027 -00.428 +00.153 +00.314 -00.476 +00.424 -00.312 +00.139 -00.352 +00.424 +00.166 +00.322 -00.254 -00.008 -00.493 +00.281 -00.387 -00.321 +00.036 +00.371 -00.064 -00.160 +00.426 +00.552 +00.110 +00.539 -00.273 -00.168 -00.127 -00.129 +00.299 +00.001 -00.182 +00.146 +00.030 -00.121 +00.002 +00.194 -00.490 +00.117 +00.093 +00.118 -00.033 +00.475 -00.207 +00.249 +00.283 +00.081 +00.441 +00.013 +00.226 +00.219 +00.489 -00.020 -00.015 -00.344 -00.300 -00.183 -00.427 -00.265 +00.167 -00.372 -00.487 -00.355 +00.245 +00.031 +00.023 -00.279 -00.308 -00.011 +00.421 +00.524 -00.148 +00.053 +00.448 +00.278 -00.036 +00.461 +00.918 +00.816 +00.479 +00.070 -00.097 -00.186 -00.188 -00.250 -00.380 -00.107 +00.233 -00.005 +00.471 +00.154 +00.145 +00.485 +00.300 -00.122 -00.000 -00.197 +00.211 +00.421 +00.525 +00.245 +00.417 +00.013 +00.811 +00.242 +00.552 -00.025 +00.580 +00.152 +00.357 -00.258 -00.027 -00.667 -00.043 -00.468 -00.005 -00.499 +00.322 -00.027 +00.023 +00.292 -00.372 -00.331 +00.291 +00.452 +00.136 -00.068 -00.029 -00.027 -00.103 -00.074 +00.605 +00.548 +00.177 +00.660 +00.740 +00.311 +00.052 -00.069 -00.536 -00.140 -00.538 -00.569 +00.256 +00.379 -00.167 -00.118 +00.367 -00.358 +00.355 -00.081 +00.473 +00.502 +00.021 +00.311 +00.629 -00.089 -00.266 -00.097 +00.224 +00.011 +00.161 -00.015 +00.410 -00.020 +00.062 -00.153 -00.465 -00.244 -00.282 -00.008 -00.398 -00.007 +00.171 +00.366 -00.172 +00.486 -00.255 -00.278 -00.344 -00.398 +00.097 -00.343 -00.233 -00.166 +00.333 +00.574 +00.004 +00.473 -00.143 +00.241 +00.441 -00.117 -00.051 -00.234 +00.279 -00.287 -00.500 -00.350 +00.275 -00.129 +00.232 +00.327 +00.318 -00.106 +00.190 -00.331 -00.080 +00.430 -00.156 +00.115 -00.261 +00.543 -00.010 -00.511 -00.573 -00.284 -00.541 -00.296 -00.434 -00.304 +00.291 +00.358 +00.178 -00.036 -00.151 +00.054 +00.329 -00.102 +00.216 +00.047 +00.240 -00.053 -00.125 +00.082 +00.390 -00.415 +00.195 -00.245 -00.408 -00.476 +00.014 -00.746 +00.065 -00.673 -00.791 -00.769 -00.029 -00.385 -00.127 +00.387 +00.182 -00.186 +00.187 -00.269 +00.252 -00.498 +00.265 +00.037 -00.107 -00.018 -00.418 -00.361 +00.457 -00.005 +00.204 +00.271 +00.005 -00.182 +00.305 -00.270 -00.432 -00.235 -00.347 -00.374 -00.623 +00.220 +00.075 +00.376 -00.262 +00.435 -00.059 +00.075 -00.448 -00.474 +00.274 +00.292 -00.463 +00.040 -00.173 -00.077 -00.479 -00.068 +00.115 +00.499 +00.379 -00.186 +00.214 -00.191 -00.064 -00.110 +00.186 -00.552 -00.071 +00.091 +00.130 +00.138 -00.030 +00.552 -00.374 -00.198 +00.248 -00.030 +00.361 +00.305 +00.008 +00.135 +00.097 +00.042 -00.324 +00.446 +00.502 -00.274 -00.102 +00.078 -00.329 -00.302 +00.212 +00.120 -00.079 -00.157 +00.150 +00.097 +00.090 +00.647 -00.302 -00.396 -00.021 -00.152 +00.477 +00.018 +00.114 +00.222 +00.493 -00.026 +00.027 +00.000 -00.387 -00.356 -00.457 -00.173 -00.358 -00.421 -00.004 -00.160 -00.028 -00.057 -00.043 -00.245 -00.003 -00.303 +00.278 -00.387 +00.360 -00.130 -00.420 +00.345 -00.141 -00.020 -00.357 -00.171 +00.499 +00.256 -00.448 +00.492 -00.274 +00.070 -00.028 -00.160 +00.234 +00.044 +00.086 +00.156 +00.003 -00.479 -00.479 -00.494 +00.239 +00.263 -00.041 -00.269 +00.529 -00.172 -00.211 +00.235 +00.093 -00.186 +00.048 +00.447 +00.294 +00.191 -00.224 +00.293 -00.052 -00.177 +00.276 +00.161 +00.406 -00.200 -00.550 +00.023 +00.271 +00.069 -00.210 -00.195 +00.163 -00.049 -00.049 -00.060 -00.218 +00.489 +00.181 -00.282 -00.265 +00.445 +00.441 +00.326 -00.242 -00.012 +00.273 -00.448 -00.321 -00.452 +00.344 +00.117 -00.130 +00.128 -00.213 -00.231 +00.395 -00.201 +00.385 +00.215 +00.435 -00.263 -00.392 +00.199 +00.261 +00.103 -00.339 -00.488 +00.080 +00.344 -00.273 +00.315 
+00.289 -00.332 +00.141 -00.453 +00.156 -00.086 -00.401 +00.335 -00.037 +00.444 -00.039 +00.339 +00.074 +00.263 -00.378 -00.016 -00.419 -00.485 -00.287 -00.463 -00.231 -00.178 +00.235 -00.471 +00.431 +00.400 -00.459 +00.011 +00.244 -00.232 -00.173 +00.033 -00.065 +00.468 +00.079 -00.409 -00.118 +00.179 +00.427 +00.344 +00.122 -00.113 +00.183 -00.306 -00.358 +00.303 +00.179 -00.269 +00.321 +00.395 -00.231 -00.411 -00.285 -00.497 -00.381 -00.354 +00.403 -00.340 +00.158 +00.147 -00.072 +00.484 -00.320 +00.363 +00.452 +00.256 +00.444 -00.179 -00.081 +00.358 -00.345 -00.458 -00.243 +00.361 -00.241 -00.078 +00.180 +00.446 +00.150 -00.015 +00.328 +00.416 +00.080 -00.456 +00.419 +00.199 -00.309 +00.323 +00.359 +00.348 -00.031 -00.220 +00.320 +00.129 -00.392 +00.205 -00.174 -00.477 -00.433 +00.311 +00.439 -00.227 +00.403 -00.227 -00.314 -00.317 +00.180 +00.328 -00.397 -00.182 -00.183 +00.431 -00.266 +00.397 +00.475 -00.344 +00.102 -00.335 +00.469 -00.056 -00.505 -00.086 +00.175 +00.221 -00.557 +00.240 +00.014 -00.095 +00.411 +00.204 -00.167 +00.473 -00.452 -00.226 -00.247 -00.283 -00.066 +00.405 -00.469 +00.030 -00.277 -00.153 -00.039 -00.042 -00.257 -00.079 +00.094 +00.331 +00.108 +00.122 -00.198 +00.076 -00.520 -00.521 -00.112 -00.441 +00.379 -00.453 +00.079 +00.298 +00.266 +00.486 +00.430 +00.429 -00.205 -00.345 -00.409 +00.188 -00.451 -00.380 -00.282 -00.225 -00.033 +00.160 +00.201 +00.188 -00.375 -00.098 +00.070 +00.215 +00.425 +00.383 -00.134 +00.492 +00.414 +00.267 -00.469 +00.201 +00.283 +00.266 +00.335 +00.362 +00.354 +00.216 +00.125 +00.492 +00.297 +00.202 +00.176 +00.345 +00.319 +00.377 -00.420 -00.268 +00.031 +00.315 -00.589 +00.123 -00.314 +00.082 -00.129 -00.396 -00.024 +00.284 -00.405 -00.257 +00.046 -00.240 -00.218 +00.193 +00.624 +00.458 -00.329 +00.139 -00.004 +00.257 +00.125 -00.223 -00.056 -00.229 -00.433 -00.299 -00.371 -00.316 -00.043 +00.214 -00.446 -00.086 -00.260 -00.346 -00.430 +00.321 -00.116 +00.029 +00.190 +00.133 +00.515 -00.106 +00.387 +00.557 +00.069 +00.051 +00.262 +00.190 -00.313 -00.269 -00.091 +00.236 -00.062 +00.314 -00.433 +00.110 -00.383 -00.195 +00.374 +00.121 -00.650 -00.605 -00.316 -00.110 -00.332 -00.023 -00.048 +00.258 -00.397 -00.354 -00.162 +00.421 -00.340 +00.351 +00.256 +00.192 -00.101 -00.011 -00.177 -00.019 +00.176 +00.265 -00.093 -00.146 +00.239 +00.045 -00.448 +00.363 +00.166 +00.263 -00.030 +00.192 -00.738 -00.579 -00.120 -00.251 -00.013 +00.402 -00.427 +00.078 +00.434 -00.232 -00.095 -00.422 -00.389 -00.363 +00.208 -00.054 +00.172 -00.331 -00.282 +00.040 +00.592 +00.223 +00.520 +00.305 -00.593 +00.027 -00.067 +00.144 -00.006 -00.344 +00.133 +00.121 -00.157 -00.216 -00.422 +00.488 -00.261 -00.342 +00.066 -00.330 -00.083 +00.442 -00.301 +00.016 -00.327 -00.414 -00.261 +00.520 -00.049 +00.059 +00.197 -00.163 +00.086 -00.625 +00.268 +00.091 +00.174 -00.095 -00.027 +00.005 +00.386 -00.086 -00.155 -00.116 +00.259 -00.037 -00.102 -00.490 +00.111 +00.439 -00.359 -00.465 +00.471 +00.063 +00.354 -00.075 +00.317 +00.629 +00.787 +00.263 +00.308 -00.396 +00.212 -00.011 -00.410 +00.058 -00.316 -00.466 -00.287 +00.324 +00.126 -00.319 -00.208 -00.475 +00.095 -00.435 -00.013 +00.484 -00.439 -00.377 +00.494 -00.132 -00.096 +00.744 +00.586 +00.615 +00.739 -00.295 -00.151 +00.251 +00.232 -00.253 +00.419 -00.052 +00.229 -00.288 -00.304 +00.453 -00.288 -00.060 +00.314 +00.395 +00.145 -00.391 +00.423 -00.263 -00.328 -00.083 -00.254 -00.188 +00.193 -00.063 +00.259 +00.377 -00.332 -00.387 -00.233 -00.625 -00.135 +00.400 +00.303 -00.520 -00.431 +00.389 +00.080 +00.277 -00.446 +00.280 +00.247 -00.196 -00.262 +00.065 -00.297 +00.369 +00.142 -00.421 -00.424 +00.362 +00.053 -00.070 -00.334 -00.425 +00.001 -00.063 -00.003 -00.008 +00.396 -00.265 +00.148 -00.479 +00.488 +00.054 -00.402 -00.506 -00.069 +00.199 +00.313 +00.016 +00.005 +00.066 +00.325 +00.234 -00.396 -00.561 +00.049 +00.213 -00.449 +00.150 +00.013 +00.004 -00.615 +00.005 -00.024 +00.127 +00.043 +00.059 -00.224 -00.388 +00.068 +00.410 -00.380 +00.003 +00.008 -00.179 +00.109 -00.494 -00.450 -00.077 +00.039 +00.057 +00.454 -00.232 -00.284 -00.487 -00.296 +00.193 +00.100 -00.361 -00.176 -00.243 -00.576 +00.260 -00.018 +00.454 -00.062 +00.141 -00.197 +00.171 +00.190 +00.351 +00.175 +00.456 -00.004 -00.218 -00.200 -00.397 -00.198 -00.156 -00.010 +00.244 +00.375 -00.030 -00.427 -00.474 -00.150 -00.285 -00.619 -00.100 -00.551 +00.328 -00.260 -00.277 +00.057 -00.091 -00.482 -00.504 -00.441 -00.149 +00.245 +00.360 -00.193 -00.002 +00.340 +00.303 +00.283 -00.374 +00.343 -00.480 -00.017 -00.039 +00.434 -00.090 +00.315 -00.510 +00.118 +00.166 +00.144 +00.280 -00.344 +00.076 -00.001 -00.307 +00.162 -00.427 +00.193 +00.287 -00.375 +00.311 -00.314 +00.410 +00.190 -00.005 -00.093 +00.009 -00.249 -00.360 +00.149 -00.290 -00.160 -00.222 +00.182 -00.256 +00.228 +00.259 -00.228 -00.357 -00.396 +00.195 +00.312 -00.276 -00.268 -00.117 +00.063 -00.480 +00.019 -00.219 +00.313 +00.157 -00.402 -00.498 +00.067 +00.281 -00.020 +00.426 -00.271 +00.210 -00.378 +00.498 +00.485 -00.004 -00.264 +00.199 +00.057 +00.149 -00.366 +00.192 +00.354 -00.110 -00.067 +00.201 +00.159 +00.241 -00.347 -00.264 +00.250 +00.170 +00.017 +00.065 -00.174 +00.117 +00.068 +00.386 -00.143 -00.492 +00.350 +00.217 +00.378 -00.407 +00.246 +00.385 -00.046 +00.288 -00.105 -00.460 +00.116 +00.230 +00.271 -00.077 -00.434 -00.279 -00.330 +00.232 +00.450 -00.179 +00.469 +00.200 +00.491 -00.009 -00.226 -00.172 -00.387 +00.354 -00.266 +00.028 +00.472 -00.351 -00.267 +00.259 -00.405 +00.351 +00.066 +00.097 +00.307 -00.374 +00.130 -00.117 +00.305 -00.141 +00.272 +00.343 +00.064 +00.440 +00.076 +00.013 -00.239 +00.045 -00.282 -00.238 -00.459 -00.017 +00.071 -00.404 -00.209 +00.289 +00.103 -00.334 +00.314 +00.266 +00.378 +00.433 +00.266 +00.065 +00.054 +00.084 +00.161 -00.363 +00.419 -00.067 -00.019 +00.188 -00.224 -00.455 +00.128 +00.353 +00.059 +00.388 -00.109 +00.250 -00.389 -00.097 -00.310 +00.162 +00.033 +00.031 -00.058 -00.367 +00.186 -00.206 -00.459 +00.222 -00.176 +00.344 -00.213 +00.364 -00.081 +00.441 +00.496 -00.163 -00.126 -00.023 -00.475 +00.151 +00.022 +00.152 +00.002 -00.431 +00.030 +00.392 +00.339 +00.175 -00.188 -00.420 -00.124 +00.385 +00.142 +00.371 -00.407 -00.075 -00.264 -00.349 -00.352 +00.059 -00.500 -00.062 -00.076 -00.081 
-00.121 -00.080 +00.256 +00.253 +00.398 +00.281 -00.096 -00.080 -00.066 +00.407 +00.000 +00.476 +00.308 -00.148 +00.159 -00.361 -00.047 -00.446 -00.467 -00.387 +00.439 -00.373 +00.039 -00.325 -00.220 +00.188 +00.235 -00.219 -00.375 -00.341 +00.200 +00.004 +00.079 -00.045 -00.242 -00.024 -00.264 +00.162 +00.396 +00.170 +00.069 -00.104 +00.146 -00.123 +00.244 -00.193 +00.016 -00.299 -00.141 +00.049 -00.187 -00.203 +00.176 +00.353 -00.027 +00.456 +00.040 -00.292 -00.263 +00.166 -00.133 +00.436 -00.330 +00.446 -00.101 -00.047 -00.062 +00.136 -00.412 -00.187 -00.197 +00.166 +00.211 +00.432 -00.470 -00.037 -00.248 +00.056 +00.163 +00.106 -00.398 +00.477 +00.405 +00.277 +00.330 -00.122 +00.233 -00.130 +00.086 +00.470 -00.466 +00.445 +00.408 -00.274 +00.408 -00.216 +00.105 -00.206 +00.422 +00.211 +00.104 -00.314 -00.136 -00.132 -00.303 -00.052 +00.329 -00.084 +00.474 -00.022 -00.478 -00.426 -00.045 +00.427 +00.351 -00.215 -00.193 +00.082 +00.148 +00.380 +00.060 +00.186 +00.304 -00.111 +00.261 +00.117 +00.148 -00.072 -00.552 +00.094 -00.284 +00.200 +00.462 +00.201 -00.395 -00.393 -00.435 +00.372 -00.010 -00.471 -00.150 +00.012 -00.398 +00.305 -00.061 +00.446 -00.435 +00.229 +00.074 +00.266 +00.119 -00.483 -00.165 -00.078 -00.036 -00.267 -00.344 -00.245 +00.310 -00.262 +00.512 -00.293 +00.586 +00.480 +00.295 -00.435 +00.480 +00.307 +00.424 -00.032 +00.336 -00.224 +00.480 +00.416 -00.450 -00.066 +00.418 -00.331 -00.343 -00.051 +00.480 +00.373 -00.001 -00.190 -00.232 -00.433 +00.189 -00.041 -00.142 +00.140 +00.470 +00.045 +00.258 +00.347 -00.207 -00.104 +00.348 -00.236 -00.296 +00.270 +00.225 -00.473 -00.459 +00.223 +00.506 -00.362 -00.350 +00.479 -00.054 -00.115 -00.209 -00.280 -00.375 +00.361 +00.135 -00.131 +00.397 -00.189 +00.572 -00.027 +00.393 +00.258 +00.179 -00.105 -00.017 +00.450 +00.291 -00.178 -00.295 +00.478 -00.398 +00.469 -00.417 -00.322 +00.209 -00.351 -00.083 +00.317 +00.342 +00.029 -00.417 -00.299 +00.299 -00.323 +00.504 -00.124 +00.168 +00.529 +00.151 +00.008 -00.324 -00.225 -00.366 +00.329 +00.166 +00.098 +00.268 -00.058 +00.451 +00.533 +00.026 -00.419 +00.480 +00.099 -00.226 +00.084 -00.086 -00.133 -00.225 -00.229 -00.568 -00.075 +00.003 +00.284 +00.183 +00.080 -00.326 -00.239 -00.092 +00.125 +00.171 +00.067 +00.395 +00.292 -00.120 +00.042 -00.057 -00.251 -00.375 -00.054 -00.271 +00.090 +00.031 -00.364 +00.368 -00.043 +00.032 -00.197 -00.564 -00.498 +00.241 -00.449 +00.045 -00.137 +00.435 -00.222 +00.365 +00.498 -00.015 -00.233 +00.119 -00.357 +00.310 +00.010 +00.514 -00.193 -00.328 -00.086 -00.038 -00.218 +00.355 +00.066 -00.042 -00.564 +00.035 -00.084 +00.101 -00.207 -00.557 +00.321 -00.004 +00.366 +00.493 -00.366 -00.328 +00.359 -00.119 -00.470 +00.355 +00.354 -00.219 +00.006 -00.394 -00.286 +00.584 +00.537 -00.006 -00.202 +00.016 +00.271 -00.449 -00.586 -00.325 +00.149 -00.324 -00.522 -00.173 -00.426 -00.006 -00.072 +00.445 +00.479 -00.312 +00.368 -00.413 -00.147 +00.223 -00.041 -00.121 +00.110 -00.091 +00.286 -00.315 -00.015 +00.513 -00.142 +00.065 -00.306 -00.426 +00.108 +00.310 -00.265 +00.281 -00.188 -00.302 -00.333 -00.115 +00.088 -00.304 +00.278 +00.375 -00.445 +00.227 -00.440 +00.423 +00.309 -00.091 +00.163 -00.154 +00.413 -00.126 +00.275 +00.211 +00.036 +00.667 -00.156 -00.156 -00.224 -00.077 -00.027 -00.522 -00.060 +00.486 +00.401 +00.247 -00.398 +00.467 +00.511 +00.032 -00.430 +00.251 -00.099 -00.374 -00.036 -00.043 -00.435 -00.143 +00.483 +00.377 +00.217 +00.310 +00.575 -00.236 -00.371 -00.306 -00.357 -00.031 +00.188 -00.013 +00.438 -00.262 +00.053 -00.153 +00.546 -00.168 +00.471 +00.497 -00.278 +00.444 +00.023 -00.205 +00.184 +00.415 -00.083 -00.290 -00.035 +00.049 +00.005 -00.205 -00.270 -00.446 +00.331 -00.464 -00.307 -00.379 -00.047 -00.058 +00.051 +00.531 +00.421 -00.057 -00.389 -00.143 +00.166 -00.495 +00.110 +00.106 -00.496 +00.337 +00.049 +00.020 -00.383 -00.241 -00.027 +00.064 -00.096 +00.331 -00.449 +00.342 -00.495 -00.398 +00.395 -00.441 -00.146 -00.334 -00.342 +00.206 +00.094 +00.153 +00.084 -00.128 +00.467 +00.053 +00.162 +00.116 +00.071 -00.227 -00.279 +00.061 -00.419 +00.236 -00.419 -00.260 -00.457 +00.032 +00.222 -00.159 -00.213 +00.191 -00.177 +00.028 +00.509 -00.228 +00.051 -00.198 -00.049 +00.151 +00.338 +00.380 -00.334 -00.166 -00.265 -00.363 +00.397 +00.395 +00.243 -00.050 -00.359 +00.456 -00.481 -00.216 +00.296 -00.380 -00.047 +00.203 +00.168 -00.260 -00.281 -00.344 -00.385 +00.036 +00.111 +00.528 +00.293 -00.382 -00.303 -00.409 +00.151 +00.487 +00.491 +00.331 -00.177 -00.276 +00.454 -00.309 -00.389 +00.258 +00.252 -00.147 +00.245 +00.221 +00.137 +00.041 +00.487 -00.366 -00.214 +00.188 -00.047 -00.008 +00.189 -00.167 +00.390 -00.264 -00.190 +00.129 -00.215 -00.000 +00.245 +00.443 -00.012 +00.235 +00.270 +00.292 +00.489 +00.324 -00.379 -00.338 +00.033 +00.298 +00.053 -00.137 +00.078 +00.520 +00.183 -00.061 -00.371 +00.376 +00.381 -00.213 -00.340 +00.045 +00.168 -00.411 +00.277 +00.493 +00.227 -00.435 -00.006 -00.029 -00.494 +00.491 -00.276 +00.300 +00.340 -00.295 +00.076 +00.384 -00.145 +00.543 +00.042 +00.133 -00.331 +00.541 +00.132 +00.256 -00.196 +00.036 +00.008 -00.293 +00.398 +00.222 +00.267 +00.071 +00.315 +00.050 +00.065 +00.042 +00.114 -00.437 -00.482 +00.126 -00.438 -00.254 -00.062 +00.362 -00.114 +00.373 +00.124 +00.163 +00.439 -00.256 -00.158 -00.435 -00.324 +00.361 +00.284 -00.010 -00.050 -00.177 +00.200 -00.158 -00.450 -00.026 +00.414 +00.366 -00.476 -00.025 -00.101 +00.123 +00.014 -00.107 -00.254 +00.077 +00.143 +00.157 -00.075 -00.409 +00.139 -00.404 +00.203 -00.006 -00.260 +00.484 +00.062 -00.068 +00.342 -00.160 +00.402 -00.222 +00.165 +00.105 +00.120 +00.215 -00.422 +00.033 +00.070 -00.414 -00.494 +00.472 +00.185 -00.017 -00.164 +00.424 -00.421 -00.465 +00.140 +00.002 -00.430 -00.273 +00.075 +00.269 +00.246 +00.333 +00.252 -00.196 -00.256 +00.080 +00.143 -00.353 +00.358 -00.193 +00.251 -00.022 -00.479 +00.327 -00.496 +00.077 +00.397 -00.536 +00.030 +00.143 +00.062 -00.507 +00.158 +00.192 -00.456 -00.171 -00.263 -00.358 +00.078 +00.326 +00.418 -00.162 +00.160 +00.163 +00.141 +00.404 -00.256 -00.217 -00.449 -00.398 +00.090 +00.302 +00.078 +00.111 +00.131 +00.089 -00.288 +00.060 +00.114 +00.302 -00.266 -00.307 +00.305 +00.405 +00.399 +00.360 -00.264 -00.363 -00.496 +00.326 +00.469 +00.422 -00.336 
+00.129 +00.085 +00.305 +00.033 +00.329 -00.412 +00.084 +00.431 +00.178 -00.114 +00.010 -00.210 -00.482 -00.398 +00.005 +00.082 +00.219 -00.190 +00.317 +00.413 -00.384 +00.222 +00.312 +00.476 +00.461 +00.451 +00.480 +00.287 +00.420 +00.402 +00.451 +00.049 -00.013 +00.255 -00.418 -00.184 +00.343 +00.166 -00.254 +00.020 -00.449 +00.256 +00.311 -00.430 +00.363 -00.182 +00.153 +00.078 +00.127 -00.031 -00.010 +00.242 -00.308 -00.198 +00.218 -00.347 -00.247 +00.198 +00.440 -00.327 +00.099 +00.391 +00.222 -00.414 +00.153 +00.322 -00.087 -00.002 -00.014 +00.176 -00.462 +00.038 -00.084 +00.326 +00.088 -00.239 -00.361 -00.254 +00.341 +00.266 +00.215 -00.168 +00.009 +00.407 +00.135 -00.274 -00.441 +00.388 +00.424 +00.499 -00.439 +00.029 +00.411 +00.317 +00.131 +00.030 +00.070 -00.515 -00.498 -00.477 +00.110 -00.484 +00.060 -00.456 +00.352 -00.331 -00.174 +00.499 -00.083 -00.331 +00.266 -00.368 +00.001 -00.226 -00.462 -00.356 +00.033 -00.376 -00.446 -00.027 -00.348 -00.377 +00.462 +00.487 +00.384 +00.112 +00.056 -00.062 -00.001 -00.027 -00.058 -00.327 +00.041 -00.429 -00.224 -00.062 -00.244 +00.117 -00.055 +00.175 +00.286 -00.289 +00.306 -00.213 -00.012 +00.363 -00.048 +00.541 +00.527 -00.017 -00.075 -00.421 +00.127 -00.087 -00.452 -00.136 +00.326 -00.139 +00.181 -00.096 -00.478 -00.194 +00.180 +00.175 -00.054 -00.499 -00.369 +00.206 +00.119 +00.076 -00.120 -00.095 +00.283 -00.330 +00.159 -00.244 -00.466 -00.419 -00.242 +00.642 +00.305 +00.470 -00.157 -00.161 -00.463 -00.637 -00.267 +00.316 +00.004 -00.218 -00.115 +00.173 +00.206 -00.350 -00.117 -00.350 -00.357 +00.006 +00.354 +00.257 -00.433 -00.294 -00.395 +00.320 -00.103 +00.403 -00.143 +00.304 +00.873 +00.345 +00.397 +00.425 -00.311 -00.143 -00.091 -00.612 -00.129 -00.463 -00.520 -00.461 -00.037 -00.021 +00.268 -00.333 +00.116 -00.361 -00.184 +00.251 +00.142 -00.352 -00.021 +00.198 -00.015 +00.382 +00.399 +00.588 +00.212 +00.387 -00.034 +00.243 -00.291 +00.234 -00.489 -00.479 -00.466 +00.091 -00.288 +00.106 +00.316 -00.144 +00.217 -00.223 +00.322 -00.020 -00.059 -00.065 +00.109 +00.215 -00.309 -00.201 +00.550 +00.401 +00.566 -00.255 -00.231 -00.032 -00.394 +00.535 -00.133 -00.029 +00.004 -00.096 -00.313 -00.028 +00.097 -00.172 -00.278 +00.482 +00.490 -00.467 -00.178 +00.202 -00.196 -00.373 -00.365 +00.191 +00.075 +00.370 +00.061 +00.338 -00.544 -00.287 -00.296 -00.644 +00.192 +00.408 +00.141 +00.372 +00.284 +00.442 -00.060 -00.195 -00.106 +00.121 +00.369 -00.376 +00.456 -00.425 -00.412 +00.436 -00.399 -00.116 +00.077 -00.141 +00.081 +00.386 -00.276 -00.371 -00.057 -00.067 +00.240 +00.141 -00.358 +00.041 +00.335 +00.317 -00.306 -00.099 +00.438 -00.288 -00.105 -00.132 +00.015 +00.346 +00.413 -00.161 +00.446 +00.361 -00.100 -00.504 +00.239 -00.009 -00.015 +00.044 +00.481 +00.469 -00.344 -00.546 -00.398 +00.419 +00.411 -00.249 +00.145 +00.278 -00.194 -00.235 +00.322 +00.303 +00.295 +00.279 +00.479 -00.348 +00.475 -00.083 +00.482 +00.386 +00.234 +00.400 +00.197 -00.326 +00.525 +00.109 +00.193 -00.177 +00.393 +00.025 -00.055 -00.093 +00.460 +00.207 -00.366 -00.171 -00.151 +00.076 -00.125 -00.443 -00.357 -00.176 +00.378 +00.357 +00.379 +00.244 +00.489 +00.355 -00.341 +00.453 +00.197 +00.421 +00.433 +00.013 -00.444 +00.314 -00.579 +00.186 -00.243 -00.404 +00.032 +00.256 -00.291 -00.589 -00.548 -00.246 +00.094 +00.344 -00.271 -00.348 +00.386 -00.254 -00.277 +00.147 -00.420 -00.401 -00.109 -00.468 +00.445 +00.066 -00.449 +00.155 -00.069 +00.392 -00.366 +00.049 +00.321 -00.206 -00.138 -00.420 -00.405 -00.008 -00.053 -00.138 +00.349 +00.493 +00.549 +00.090 +00.275 -00.384 -00.010 +00.067 -00.151 +00.212 -00.286 -00.099 +00.297 +00.079 -00.055 +00.257 -00.362 +00.029 -00.038 +00.207 +00.071 +00.242 -00.263 -00.316 +00.195 -00.246 -00.381 -00.473 -00.326 -00.388 +00.262 -00.323 -00.455 +00.097 +00.057 +00.252 +00.203 -00.444 -00.180 -00.453 +00.252 +00.008 -00.084 +00.110 -00.323 +00.425 -00.237 -00.246 -00.023 +00.240 +00.320 +00.354 -00.173 -00.575 -00.287 -00.149 +00.072 +00.143 +00.013 +00.389 +00.172 -00.434 +00.432 +00.204 +00.176 +00.016 -00.043 -00.105 +00.084 +00.278 -00.092 -00.145 -00.086 +00.453 +00.405 -00.022 +00.383 -00.262 +00.174 -00.164 -00.503 +00.048 -00.071 +00.122 +00.286 +00.197 +00.379 -00.125 -00.265 -00.247 -00.245 +00.458 -00.133 -00.286 +00.162 -00.437 +00.241 -00.384 -00.105 -00.200 +00.462 +00.445 +00.227 -00.229 +00.258 +00.050 +00.142 +00.141 +00.278 -00.145 -00.453 +00.461 -00.332 +00.013 -00.066 +00.341 -00.405 -00.247 -00.234 -00.109 +00.053 +00.031 -00.150 +00.445 +00.270 -00.486 +00.414 -00.050 -00.323 -00.059 +00.325 -00.463 -00.294 -00.142 -00.281 +00.511 +00.552 +00.383 +00.148 +00.369 -00.169 +00.260 +00.212 -00.127 -00.342 -00.384 -00.244 -00.218 -00.112 +00.025 +00.174 +00.461 -00.412 -00.434 +00.360 +00.272 -00.462 +00.328 -00.232 -00.397 -00.412 -00.595 -00.344 +00.033 +00.134 -00.014 -00.076 +00.033 -00.135 -00.394 -00.283 +00.116 +00.289 +00.441 -00.468 +00.462 -00.433 -00.210 -00.257 -00.036 +00.342 +00.442 -00.067 +00.379 +00.429 -00.275 +00.097 +00.384 -00.490 +00.357 -00.363 -00.111 +00.612 -00.150 +00.209 +00.082 +00.313 -00.346 +00.383 -00.402 -00.256 -00.344 +00.256 -00.448 -00.391 +00.290 -00.486 -00.324 -00.428 -00.249 +00.123 +00.385 -00.343 -00.504 +00.215 -00.408 -00.167 -00.055 -00.381 -00.054 -00.048 -00.215 +00.187 -00.037 +00.073 -00.103 +00.372 -00.141 +00.032 +00.268 -00.030 +00.285 +00.431 -00.272 +00.337 -00.460 -00.486 +00.351 -00.302 -00.425 -00.404 +00.316 +00.441 -00.277 +00.376 +00.252 -00.108 -00.336 -00.331 -00.036 +00.042 +00.096 +00.219 -00.301 +00.504 -00.196 +00.027 +00.320 +00.145 -00.443 +00.089 -00.385 +00.342 +00.020 -00.153 +00.185 +00.056 -00.164 -00.023 +00.177 -00.113 +00.131 +00.151 -00.042 +00.423 -00.036 -00.261 -00.115 +00.273 +00.002 +00.357 -00.275 +00.515 +00.028 -00.174 +00.451 +00.307 +00.352 +00.271 -00.048 +00.409 -00.140 +00.067 +00.250 +00.373 +00.392 -00.090 -00.078 -00.254 +00.442 -00.284 +00.197 +00.043 +00.269 -00.374 +00.022 -00.108 -00.064 +00.366 +00.517 +00.308 +00.151 -00.343 +00.274 -00.339 -00.018 +00.225 +00.469 -00.166 -00.004 -00.080 -00.257 +00.354 +00.475 +00.487 +00.235 +00.394 -00.076 -00.330 -00.348 -00.123 -00.119 +00.369 +00.466 -00.268 -00.425 +00.016 +00.070 -00.039 -00.141 +00.060 -00.251 -00.497 +00.217 
-00.477 -00.335 -00.301 +00.247 -00.367 +00.033 -00.257 +00.054 +00.277 -00.401 +00.041 +00.272 +00.335 -00.062 -00.301 -00.488 +00.105 +00.088 -00.095 +00.001 +00.079 +00.139 +00.074 -00.405 -00.291 -00.466 -00.046 +00.269 -00.217 -00.043 -00.014 -00.194 +00.122 +00.185 -00.447 +00.255 -00.282 -00.204 -00.191 +00.495 -00.105 +00.350 +00.268 -00.266 -00.202 +00.469 -00.258 +00.394 +00.055 +00.147 -00.106 -00.367 -00.214 +00.468 -00.272 -00.005 -00.498 +00.182 -00.235 -00.214 -00.361 +00.250 +00.091 +00.260 -00.067 +00.128 +00.007 +00.154 +00.441 +00.314 +00.143 -00.168 +00.185 -00.071 +00.083 +00.469 -00.119 +00.304 +00.353 +00.436 -00.044 -00.251 -00.430 +00.242 -00.283 -00.202 -00.263 -00.281 +00.480 +00.002 +00.004 -00.383 -00.256 -00.432 +00.351 +00.167 +00.240 -00.098 -00.153 +00.189 -00.269 +00.480 -00.490 +00.397 -00.081 +00.083 +00.349 +00.289 -00.108 +00.209 +00.225 +00.347 +00.457 +00.295 +00.089 -00.326 -00.407 +00.329 -00.101 -00.429 -00.200 +00.343 -00.378 +00.025 +00.418 -00.529 -00.290 +00.217 -00.054 +00.072 -00.124 +00.138 +00.066 -00.062 +00.071 -00.495 -00.484 -00.074 +00.291 -00.094 -00.366 +00.016 -00.247 -00.408 -00.190 +00.346 -00.231 -00.115 +00.092 +00.076 -00.110 +00.399 -00.078 -00.037 -00.038 -00.018 +00.139 +00.292 -00.277 -00.382 -00.096 +00.162 +00.377 -00.455 -00.360 -00.046 -00.443 -00.350 +00.375 +00.348 +00.055 -00.491 -00.134 +00.323 -00.385 +00.149 +00.104 -00.158 -00.494 -00.269 -00.606 -00.119 -00.333 -00.095 -00.514 +00.162 -00.582 +00.287 +00.188 -00.111 -00.343 -00.257 -00.316 -00.444 -00.246 -00.233 -00.021 -00.194 -00.083 -00.143 -00.329 +00.512 -00.104 +00.040 +00.279 +00.012 -00.257 -00.052 +00.293 -00.280 +00.195 +00.235 +00.094 -00.594 -00.160 -00.480 +00.467 +00.096 -00.401 +00.360 -00.342 -00.277 +00.417 -00.354 -00.316 -00.344 -00.087 +00.173 -00.010 +00.390 -00.383 +00.234 +00.387 -00.007 -00.261 +00.141 +00.446 -00.040 -00.356 +00.281 +00.207 +00.400 +00.217 +00.133 +00.481 +00.646 +00.200 +00.510 +00.262 +00.068 +00.015 +00.100 +00.147 -00.095 +00.249 +00.358 +00.115 -00.244 +00.101 -00.357 +00.584 +00.090 +00.214 +00.388 +00.542 +00.429 +00.032 +00.411 -00.164 +00.088 +00.118 +00.355 -00.335 +00.565 -00.203 +00.587 +00.584 +00.227 +00.264 +00.048 -00.338 -00.248 -00.352 +00.341 +00.216 +00.463 +00.220 -00.211 -00.404 -00.365 -00.236 -00.392 +00.326 +00.597 +00.411 +00.140 +00.326 -00.206 -00.129 +00.268 -00.041 +00.198 +00.058 +00.176 +00.214 +00.255 +00.107 +00.147 -00.102 -00.147 -00.306 +00.079 +00.135 -00.143 -00.120 -00.248 -00.296 -00.521 -00.016 -00.151 -00.227 +00.284 -00.289 +00.254 +00.160 -00.451 -00.206 -00.407 -00.510 +00.033 -00.446 +00.158 -00.181 +00.151 -00.154 -00.488 -00.126 +00.433 +00.164 +00.289 -00.209 +00.342 -00.184 +00.335 -00.402 +00.080 -00.458 -00.118 +00.190 +00.029 -00.072 +00.233 -00.178 +00.253 -00.049 +00.239 +00.234 +00.446 -00.256 -00.452 +00.067 -00.152 +00.265 +00.427 -00.498 -00.403 +00.446 -00.117 -00.475 +00.076 -00.386 -00.279 -00.187 -00.211 -00.475 -00.022 -00.476 -00.382 -00.794 +00.208 +00.412 -00.071 -00.025 -00.362 -00.100 -00.163 -00.199 -00.144 -00.155 +00.058 -00.046 +00.459 +00.428 -00.277 +00.387 +00.430 -00.187 +00.291 -00.250 -00.289 -00.248 -00.265 -00.025 +00.154 +00.231 +00.168 -00.238 -00.494 -00.350 -00.216 +00.276 -00.397 -00.439 +00.219 +00.079 +00.079 -00.377 +00.385 +00.467 -00.017 -00.041 -00.069 -00.058 -00.117 +00.145 -00.208 -00.259 +00.313 -00.562 -00.074 -00.348 -00.104 -00.523 +00.457 -00.077 -00.467 +00.280 +00.272 -00.495 -00.421 -00.094 -00.366 -00.151 +00.010 +00.353 +00.389 -00.418 +00.471 +00.283 -00.440 -00.045 -00.262 -00.012 +00.377 +00.095 -00.490 -00.475 +00.281 -00.549 -00.264 +00.058 +00.024 +00.569 +00.191 -00.075 -00.098 +00.165 -00.181 -00.164 +00.296 -00.074 +00.220 +00.370 +00.189 -00.310 +00.236 +00.093 -00.224 +00.210 -00.120 -00.162 -00.326 +00.140 +00.272 -00.548 -00.352 +00.370 -00.301 -00.282 -00.284 +00.296 +00.346 +00.122 +00.238 -00.056 +00.403 +00.458 -00.421 -00.252 -00.220 +00.309 +00.096 +00.466 +00.213 -00.194 -00.344 -00.045 +00.408 -00.065 -00.319 -00.179 +00.244 -00.248 +00.356 +00.087 -00.143 -00.318 +00.137 +00.201 -00.094 +00.271 -00.066 -00.363 -00.403 +00.361 -00.002 -00.391 +00.371 +00.037 -00.176 -00.333 -00.116 +00.446 -00.365 -00.398 -00.240 -00.223 +00.025 -00.308 +00.245 +00.238 -00.004 +00.037 -00.454 -00.128 -00.385 -00.045 -00.001 +00.206 -00.394 +00.236 -00.314 -00.237 +00.335 -00.062 -00.251 -00.145 +00.043 -00.344 +00.431 +00.392 -00.175 -00.185 +00.351 -00.069 -00.140 -00.456 +00.255 +00.499 -00.204 +00.020 +00.203 +00.185 +00.454 +00.164 +00.460 -00.504 -00.444 -00.140 +00.044 -00.488 -00.316 +00.482 -00.020 -00.401 -00.089 +00.244 -00.014 +00.470 +00.409 -00.077 +00.374 -00.281 +00.184 +00.154 +00.121 -00.389 +00.250 -00.109 -00.423 -00.537 +00.363 +00.263 +00.127 +00.292 -00.096 +00.093 +00.294 -00.066 -00.409 +00.134 +00.164 -00.159 +00.073 -00.348 -00.035 -00.500 +00.409 +00.457 +00.471 +00.298 -00.164 +00.255 -00.542 -00.475 -00.045 +00.165 -00.361 -00.265 -00.372 -00.122 -00.141 -00.440 -00.430 -00.505 +00.391 +00.010 +00.186 +00.403 -00.386 +00.340 +00.020 +00.304 -00.288 -00.381 +00.466 +00.176 -00.380 +00.365 +00.089 -00.467 +00.150 +00.447 +00.360 +00.156 -00.482 -00.028 +00.062 -00.067 +00.316 +00.187 +00.205 -00.361 +00.252 +00.299 -00.355 +00.237 -00.085 +00.414 +00.196 +00.070 +00.272 -00.269 -00.121 +00.483 -00.152 -00.168 +00.142 -00.026 -00.275 -00.198 +00.111 +00.412 -00.224 +00.024 +00.246 +00.027 +00.582 -00.216 +00.293 +00.235 +00.318 -00.120 +00.303 +00.078 -00.243 -00.469 -00.108 +00.204 +00.447 -00.411 -00.226 +00.219 -00.181 +00.148 +00.199 +00.188 +00.529 -00.101 -00.306 -00.194 +00.231 +00.217 -00.328 +00.540 -00.191 +00.359 -00.171 -00.388 +00.423 -00.508 +00.284 +00.240 -00.038 +00.183 -00.116 +00.242 +00.215 +00.276 -00.054 +00.162 +00.365 +00.219 -00.110 -00.289 -00.094 -00.401 +00.341 -00.091 -00.018 +00.522 +00.121 -00.363 +00.249 +00.268 -00.473 +00.366 +00.005 -00.195 +00.466 -00.059 -00.129 +00.328 -00.271 +00.347 +00.012 +00.112 +00.089 -00.273 -00.112 -00.465 +00.391 -00.243 +00.265 -00.223 -00.061 -00.366 -00.140 -00.203 +00.001 +00.297 -00.206 -00.398 +00.401 +00.481 +00.317 +00.415 +00.355 -00.162 -00.247 +00.346 +00.297 +00.129 +00.174 
-00.475 -00.024 -00.314 +00.138 -00.435 -00.086 -00.474 -00.400 -00.197 -00.222 +00.355 +00.074 +00.216 +00.483 +00.427 -00.492 -00.017 +00.226 -00.206 +00.075 +00.117 -00.227 -00.107 +00.034 -00.374 +00.230 +00.287 +00.472 +00.026 -00.084 +00.146 +00.052 +00.392 +00.332 -00.311 +00.457 -00.254 -00.285 -00.443 +00.047 -00.007 +00.411 -00.378 -00.290 +00.399 -00.458 -00.287 -00.125 +00.272 +00.010 +00.452 -00.107 +00.285 -00.155 +00.427 +00.411 -00.425 +00.214 +00.383 +00.101 -00.371 +00.030 -00.347 -00.478 -00.141 -00.190 +00.421 +00.052 +00.012 -00.521 -00.385 -00.489 +00.404 -00.265 -00.288 +00.296 -00.210 -00.044 -00.284 -00.389 +00.491 -00.326 -00.000 +00.273 +00.019 -00.073 +00.184 +00.094 -00.360 +00.067 -00.304 -00.217 -00.391 -00.170 -00.227 -00.049 +00.197 -00.195 -00.420 -00.228 -00.185 -00.302 -00.270 -00.376 -00.074 +00.012 -00.413 +00.338 -00.468 -00.183 +00.442 -00.476 -00.009 -00.059 +00.297 -00.489 +00.370 -00.015 +00.126 -00.446 -00.407 +00.335 -00.122 -00.192 -00.141 +00.182 +00.239 +00.567 +00.600 +00.382 -00.268 -00.300 +00.395 -00.133 -00.146 -00.122 +00.445 -00.001 -00.267 +00.479 +00.307 -00.325 -00.497 -00.202 +00.119 +00.325 -00.107 +00.095 -00.155 +00.499 +00.157 +00.089 +00.362 +00.247 +00.012 +00.406 -00.146 -00.351 +00.329 -00.227 +00.347 +00.282 -00.293 +00.020 -00.383 +00.199 -00.457 -00.380 -00.295 -00.224 -00.402 -00.491 -00.046 -00.339 -00.078 -00.366 +00.461 +00.249 +00.163 -00.259 -00.060 -00.528 +00.073 -00.219 +00.204 +00.400 -00.385 -00.201 -00.264 +00.247 -00.359 +00.077 -00.060 +00.091 -00.033 +00.283 -00.132 +00.008 +00.402 +00.086 +00.328 -00.405 +00.209 -00.182 -00.305 +00.472 -00.113 -00.539 -00.175 +00.348 -00.176 -00.527 +00.200 +00.018 -00.291 +00.344 +00.276 -00.116 +00.186 -00.010 -00.482 -00.376 +00.077 +00.337 +00.358 -00.444 +00.121 -00.262 +00.110 +00.099 +00.374 -00.087 +00.066 -00.001 +00.243 +00.125 -00.306 +00.336 +00.058 +00.176 +00.257 +00.314 +00.365 +00.237 +00.136 -00.205 -00.088 -00.389 -00.093 -00.334 -00.521 +00.299 -00.068 +00.093 +00.136 -00.193 +00.216 -00.154 +00.054 -00.246 +00.312 -00.004 +00.165 -00.226 +00.094 -00.567 +00.335 +00.593 -00.093 +00.525 +00.591 +00.372 +00.065 +00.381 +00.084 +00.457 +00.236 +00.262 -00.346 -00.163 -00.499 -00.340 -00.362 -00.030 +00.339 +00.361 +00.240 -00.120 -00.428 -00.250 +00.159 +00.172 -00.220 -00.547 -00.344 +00.149 +00.476 +00.200 +00.187 +00.134 +00.289 -00.260 -00.205 +00.504 +00.102 +00.034 +00.408 -00.092 -00.182 -00.439 +00.252 -00.144 -00.209 +00.393 +00.093 +00.397 +00.160 -00.063 -00.200 -00.130 -00.024 +00.469 +00.225 +00.354 +00.307 +00.662 +00.446 +00.218 +00.119 +00.167 +00.332 -00.476 +00.232 +00.482 -00.377 -00.092 +00.023 -00.476 +00.322 +00.361 -00.368 -00.033 -00.582 -00.328 -00.134 +00.226 -00.645 -00.813 -00.275 +00.233 +00.453 -00.042 +00.471 +00.013 +00.157 +00.489 +00.149 +00.253 -00.355 -00.466 +00.043 -00.346 -00.100 -00.062 -00.356 +00.021 +00.352 +00.180 +00.076 +00.013 -00.223 -00.099 -00.580 -00.362 -00.139 -00.424 -00.201 -00.340 +00.092 +00.382 +00.509 +00.156 -00.201 +00.172 +00.072 -00.186 -00.386 -00.494 -00.371 +00.083 +00.037 -00.483 +00.326 +00.445 -00.043 +00.474 -00.035 -00.376 -00.122 -00.785 +00.037 -00.919 -00.506 -00.837 -00.124 -00.277 -00.035 -00.306 +00.383 +00.210 +00.143 +00.335 +00.383 -00.300 -00.621 -00.228 +00.178 -00.063 +00.347 -00.267 -00.331 -00.097 -00.250 +00.484 -00.186 +00.022 +00.200 -00.015 -01.045 -00.304 -00.030 +00.178 +00.066 -00.205 -00.471 +00.070 -00.361 +00.557 +00.557 +00.344 -00.209 -00.471 -00.312 -00.251 +00.037 +00.044 -00.436 +00.123 -00.367 +00.429 +00.356 -00.195 -00.157 -00.496 -00.373 -00.087 +00.001 -00.487 -00.167 +00.197 +00.424 +00.022 +00.467 +00.450 +00.531 +00.573 -00.306 +00.203 +00.078 -00.588 -00.021 -00.270 -00.267 -00.470 +00.448 -00.329 +00.208 -00.488 +00.294 +00.363 +00.504 +00.158 -00.477 -00.355 +00.139 -00.193 +00.294 -00.091 +00.319 +00.245 +00.062 +00.326 +00.407 -00.282 -00.296 -00.095 -00.664 -00.326 -00.217 -00.581 -00.129 +00.482 -00.013 +00.385 -00.421 -00.087 -00.441 +00.327 +00.026 +00.448 +00.131 -00.148 +00.005 +00.257 +00.037 -00.352 -00.219 +00.136 +00.267 +00.372 -00.451 -00.337 -00.046 +00.162 -00.308 +00.053 -00.168 -00.058 +00.513 +00.268 +00.032 -00.051 +00.229 +00.495 -00.164 +00.349 +00.035 +00.010 +00.154 +00.493 -00.006 -00.120 -00.359 +00.090 +00.290 +00.057 -00.773 -00.582 -00.217 +00.300 -00.431 -00.080 -00.541 +00.012 -00.243 -00.114 -00.236 +00.178 +00.412 -00.264 -00.106 -00.061 +00.187 -00.345 +00.050 -00.374 +00.425 +00.404 +00.130 +00.218 +00.203 -00.044 -00.188 -00.103 -00.594 -00.193 +00.036 -00.082 +00.461 -00.263 -00.173 -00.419 +00.148 -00.198 +00.187 +00.427 +00.184 +00.410 +00.082 +00.106 -00.355 +00.493 -00.370 +00.381 -00.432 -00.065 +00.378 -00.383 -00.201 -00.400 -00.302 +00.159 +00.063 -00.445 +00.404 -00.045 -00.370 +00.233 +00.320 -00.423 +00.259 +00.500 -00.429 -00.140 -00.252 +00.238 -00.214 +00.444 +00.146 +00.376 +00.069 +00.330 +00.363 +00.051 +00.070 +00.419 -00.414 -00.121 +00.318 -00.260 +00.110 -00.010 +00.028 +00.289 +00.402 -00.160 -00.437 +00.390 +00.335 +00.245 +00.391 +00.065 +00.229 +00.464 +00.431 +00.485 +00.202 -00.270 +00.452 -00.131 -00.422 -00.038 -00.447 +00.307 -00.551 +00.165 +00.366 -00.449 -00.378 +00.251 +00.080 +00.515 -00.088 +00.472 +00.198 -00.296 -00.373 +00.155 -00.394 -00.499 -00.079 -00.499 +00.069 -00.344 +00.464 +00.004 -00.350 +00.189 +00.276 -00.313 -00.377 +00.336 -00.017 -00.443 +00.174 +00.036 +00.264 -00.001 +00.338 -00.229 +00.041 -00.123 -00.289 +00.332 -00.318 +00.320 -00.440 -00.114 +00.012 -00.325 -00.113 +00.435 -00.325 +00.456 -00.408 -00.349 +00.013 -00.163 +00.421 -00.134 -00.013 +00.467 +00.699 +00.583 +00.655 +00.420 +00.264 +00.624 -00.004 -00.131 -00.331 +00.308 +00.033 -00.248 +00.121 +00.264 -00.388 +00.190 -00.350 +00.123 +00.364 +00.037 +00.061 -00.449 +00.031 +00.215 -00.240 +00.531 +00.496 +00.600 -00.274 -00.210 +00.426 -00.277 -00.316 +00.385 +00.335 +00.033 +00.215 -00.366 +00.257 +00.310 +00.403 -00.198 -00.418 +00.028 -00.434 -00.306 -00.283 -00.285 +00.318 -00.418 +00.254 -00.108 -00.359 -00.240 -00.458 -00.185 -00.276 +00.441 -00.176 -00.163 -00.375 -00.383 -00.084 -00.366 +00.389 -00.278 +00.151 +00.098 -00.164 -00.098 -00.092 -00.261 
+00.204 -00.010 +00.266 +00.270 +00.184 +00.484 +00.485 +00.002 -00.435 +00.237 +00.378 -00.313 +00.482 +00.404 -00.013 -00.325 +00.313 +00.273 -00.011 +00.406 +00.367 +00.398 -00.463 +00.254 -00.390 +00.182 -00.148 -00.054 -00.416 +00.259 +00.185 +00.288 -00.250 -00.049 +00.058 +00.434 -00.065 +00.043 -00.064 -00.001 -00.220 -00.186 +00.187 -00.238 -00.283 -00.327 -00.063 -00.470 +00.446 +00.426 +00.437 +00.314 +00.324 +00.474 +00.067 +00.434 +00.156 +00.418 -00.120 +00.240 +00.178 -00.435 +00.028 +00.427 +00.013 -00.424 +00.352 +00.442 +00.120 -00.216 -00.066 +00.395 +00.099 -00.365 -00.326 +00.318 -00.204 +00.094 +00.354 -00.241 +00.035 +00.296 -00.428 -00.141 +00.270 +00.139 -00.207 -00.074 +00.058 +00.173 -00.334 -00.263 +00.237 +00.184 -00.350 -00.257 +00.252 -00.501 -00.309 -00.091 -00.166 +00.139 -00.167 +00.420 +00.264 -00.043 +00.243 -00.397 -00.403 +00.121 -00.134 +00.134 -00.083 -00.062 +00.493 -00.313 -00.423 -00.219 +00.105 +00.115 +00.397 +00.221 +00.299 +00.115 -00.138 -00.575 +00.403 -00.241 -00.422 -00.328 +00.193 -00.101 +00.280 +00.449 -00.210 +00.099 -00.031 -00.428 +00.216 +00.073 +00.195 -00.418 -00.292 -00.390 +00.018 -00.317 -00.229 +00.052 -00.088 +00.375 -00.253 -00.026 +00.242 -00.357 -00.280 -00.228 -00.188 -00.197 +00.040 -00.263 -00.212 -00.366 +00.157 -00.356 -00.382 +00.415 +00.181 +00.039 +00.463 -00.106 -00.387 +00.156 -00.031 -00.200 +00.258 +00.522 +00.050 -00.319 +00.259 -00.319 +00.470 +00.133 -00.432 -00.230 +00.212 +00.012 +00.306 -00.396 +00.338 +00.045 +00.085 +00.701 +00.019 +00.419 -00.472 -00.092 +00.237 +00.195 +00.446 +00.204 -00.417 -00.436 -00.078 +00.173 +00.050 -00.121 +00.229 +00.423 -00.484 -00.799 -00.295 -01.090 -00.037 -00.387 +00.404 +00.630 +00.752 +00.525 +00.879 +00.469 +00.631 -00.175 +00.117 -00.217 -00.384 +00.125 +00.188 +00.352 -00.194 +00.160 +00.173 +00.075 +00.413 +00.662 +00.626 -00.355 -00.636 -00.393 -00.112 -00.812 -00.040 +00.272 -00.007 +00.419 -00.030 +00.034 +00.371 -00.107 +00.545 +00.155 +00.344 +00.379 +00.388 -00.056 -00.341 -00.513 -00.428 +00.401 +00.490 +00.061 +00.240 +00.203 +00.582 -00.138 -00.313 -00.023 -00.693 -00.548 -00.317 -00.380 +00.140 -00.297 -00.371 +00.596 +00.347 -00.148 -00.224 -00.116 -00.051 -00.339 +00.489 -00.218 -00.458 +00.376 +00.262 -00.239 +00.487 +00.439 -00.184 +00.608 +00.064 +00.168 -00.360 +00.334 -00.141 -00.400 +00.070 +00.398 +00.414 -00.220 -00.385 -00.091 -00.369 -00.397 -00.151 +00.398 -00.156 +00.063 -00.240 +00.287 +00.232 -00.239 -00.385 +00.312 -00.354 +00.301 +00.593 -00.266 +00.369 +00.686 +00.268 +00.123 -00.379 -00.007 +00.048 -00.322 -00.060 +00.061 -00.516 -00.437 +00.076 -00.435 -00.015 +00.273 -00.345 +00.308 +00.166 -00.003 -00.121 +00.430 -00.192 -00.385 -00.330 -00.192 +00.359 -00.138 -00.291 +00.406 -00.195 +00.035 -00.074 -00.916 -00.295 -00.236 +00.445 -00.284 -00.098 -00.333 +00.224 -00.024 -00.166 -00.113 +00.066 +00.306 -00.334 +00.219 +00.122 +00.325 -00.264 +00.484 +00.243 -00.060 -00.439 +00.406 +00.276 +00.427 -00.301 +00.200 -00.270 -00.469 -00.074 -00.114 +00.034 -00.342 +00.369 -00.063 -00.073 -00.210 +00.190 -00.289 +00.327 -00.457 +00.118 -00.107 +00.349 +00.279 -00.375 -00.042 +00.103 -00.193 -00.060 -00.192 +00.279 +00.072 -00.043 +00.159 -00.311 -00.268 +00.024 -00.313 -00.529 -00.188 +00.234 +00.056 +00.057 +00.119 -00.405 -00.459 +00.483 +00.325 -00.223 +00.311 +00.362 +00.403 -00.277 +00.199 +00.156 -00.182 -00.295 -00.257 +00.056 +00.222 +00.333 +00.033 -00.407 +00.418 -00.204 +00.307 +00.050 +00.276 +00.227 -00.018 -00.340 +00.092 -00.317 +00.263 -00.254 -00.175 +00.322 -00.269 -00.360 -00.392 -00.421 -00.449 +00.497 -00.225 +00.256 +00.098 -00.024 +00.369 +00.466 -00.283 +00.124 +00.312 +00.530 +00.520 +00.274 +00.358 -00.257 -00.477 +00.080 -00.390 +00.150 +00.274 +00.215 +00.382 +00.046 +00.457 -00.300 -00.127 -00.276 -00.063 +00.038 -00.282 -00.229 -00.121 -00.004 -00.301 -00.192 -00.268 -00.212 -00.144 +00.086 +00.296 +00.286 +00.384 -00.362 -00.269 +00.171 +00.036 -00.063 -00.193 +00.137 -00.386 -00.417 -00.160 +00.490 +00.122 -00.188 -00.232 +00.569 -00.073 -00.094 -00.153 +00.200 +00.524 +00.554 -00.118 -00.266 -00.257 -00.039 -00.366 -00.350 -00.096 -00.016 +00.266 -00.159 +00.390 -00.259 -00.422 -00.131 +00.165 -00.114 +00.498 +00.274 -00.049 -00.162 +00.294 -00.373 +00.093 +00.409 -00.456 -00.392 +00.082 +00.136 +00.427 -00.012 +00.052 -00.303 +00.064 +00.099 -00.343 -00.093 +00.109 +00.226 -00.261 +00.115 -00.400 -00.464 +00.325 -00.322 -00.096 -00.015 +00.044 -00.112 -00.246 -00.445 +00.227 -00.531 -00.385 -00.096 -00.395 -00.151 +00.026 -00.027 +00.242 -00.045 -00.356 -00.182 -00.253 -00.119 +00.247 +00.145 -00.351 +00.040 -00.140 -00.206 -00.376 -00.047 -00.170 +00.450 +00.120 +00.212 -00.040 -00.251 -00.364 +00.128 -00.321 +00.414 +00.397 -00.081 -00.221 +00.225 +00.115 +00.454 -00.010 -00.054 -00.490 -00.235 +00.155 -00.001 +00.408 -00.016 -00.396 +00.475 +00.478 -00.064 -00.233 -00.396 +00.384 +00.081 -00.442 +00.019 -00.195 -00.086 +00.142 -00.022 -00.190 +00.559 -00.037 +00.541 +00.062 +00.431 +00.399 +00.502 -00.152 -00.463 -00.191 -00.002 -00.111 +00.413 +00.419 -00.273 -00.165 +00.475 -00.306 -00.187 -00.096 -00.051 -00.103 -00.232 -00.530 -00.149 +00.176 -00.139 +00.488 +00.114 +00.527 -00.093 +00.316 -00.049 -00.269 +00.320 +00.270 +00.290 +00.136 -00.362 +00.327 +00.412 +00.085 -00.325 +00.291 -00.024 -00.104 -00.374 -00.054 +00.078 -00.079 +00.332 -00.530 +00.256 -00.416 -00.496 -00.251 +00.503 +00.125 +00.027 +00.284 -00.015 -00.035 -00.556 +00.000 -00.050 +00.220 -00.197 -00.183 -00.048 -00.012 -00.356 -00.140 -00.429 -00.182 -00.349 +00.047 +00.213 -00.232 +00.487 -00.211 +00.159 +00.285 -00.232 -00.093 -00.681 -00.179 +00.370 -00.459 +00.338 -00.511 -00.155 -00.330 -00.027 -00.045 +00.310 -00.396 -00.169 -00.308 -00.061 +00.283 +00.180 +00.083 -00.357 +00.252 +00.400 -00.207 -00.206 +00.126 +00.057 -00.246 +00.388 -00.226 -00.349 -00.235 +00.351 -00.285 +00.270 +00.243 -00.315 +00.167 +00.362 +00.188 +00.458 -00.007 -00.218 +00.336 +00.119 +00.113 -00.472 -00.441 -00.104 +00.209 +00.142 +00.039 -00.039 +00.050 +00.342 +00.268 -00.332 -00.092 -00.430 -00.411 +00.185 -00.274 -00.138 +00.055 -00.093 -00.422 -00.217 +00.106 +00.267 -00.303 -00.157 +00.254 +00.200 +00.125 
+00.090 -00.181 -00.262 +00.118 -00.122 +00.134 -00.173 -00.480 -00.327 +00.287 +00.063 -00.495 +00.047 +00.221 -00.093 +00.106 +00.299 -00.406 +00.324 -00.352 +00.137 -00.270 -00.270 +00.424 +00.336 +00.497 -00.380 -00.321 +00.250 +00.320 +00.304 -00.160 -00.361 -00.458 +00.458 +00.017 +00.177 -00.215 +00.037 +00.351 -00.428 -00.400 +00.356 +00.121 +00.305 -00.242 -00.274 +00.122 -00.141 -00.448 +00.264 +00.486 -00.220 +00.497 +00.416 -00.384 +00.494 -00.463 -00.205 +00.244 +00.357 -00.401 -00.415 +00.495 -00.361 -00.464 -00.002 +00.311 -00.162 -00.411 +00.209 -00.070 -00.332 +00.048 -00.433 +00.506 +00.306 -00.234 +00.092 -00.367 -00.204 -00.144 -00.368 +00.077 -00.147 -00.451 +00.194 -00.153 -00.415 +00.489 -00.410 +00.435 -00.432 -00.360 +00.385 -00.318 -00.333 -00.082 -00.413 +00.088 +00.025 +00.271 +00.537 +00.258 -00.184 +00.511 +00.137 -00.478 -00.285 -00.294 -00.340 +00.013 +00.061 -00.207 -00.409 +00.414 -00.158 +00.282 -00.249 -00.100 +00.216 -00.232 -00.255 +00.204 -00.155 -00.330 -00.501 +00.175 +00.240 -00.291 -00.090 -00.107 +00.470 -00.203 +00.443 -00.398 -00.288 +00.020 -00.391 -00.074 +00.228 -00.230 +00.439 -00.211 +00.059 -00.485 -00.330 +00.330 +00.210 -00.161 -00.343 -00.193 +00.055 -00.014 -00.277 -00.285 -00.472 +00.102 -00.376 +00.316 +00.222 -00.084 -00.413 +00.074 +00.148 +00.425 +00.115 +00.335 -00.056 +00.224 -00.238 -00.329 +00.487 -00.324 -00.100 -00.036 -00.403 -00.019 -00.265 -00.742 -00.609 +00.041 -00.139 +00.312 -00.094 -00.490 -00.276 -00.071 +00.055 -00.077 -00.169 -00.132 +00.318 -00.204 +00.312 -00.110 -00.310 -00.068 -00.273 +00.131 -00.364 -00.057 +00.214 -00.485 +00.004 -00.436 -00.048 +00.165 +00.194 -00.617 +00.236 -00.570 +00.315 -00.013 -00.586 -00.247 +00.038 -00.212 +00.476 -00.154 +00.235 -00.265 +00.094 -00.046 -00.042 -00.105 +00.346 +00.132 +00.280 -00.492 -00.328 +00.365 -00.082 -00.567 -00.596 -00.491 -00.370 +00.186 -00.402 -00.234 -00.572 -00.479 -00.318 +00.204 +00.042 -00.245 -00.146 -00.088 +00.207 -00.120 +00.200 -00.158 +00.032 -00.232 +00.300 +00.458 +00.118 +00.084 +00.060 -00.094 +00.116 +00.282 -00.223 -00.384 -00.584 +00.134 +00.083 -00.165 -00.194 -00.042 -00.149 -00.383 +00.071 -00.674 -00.175 +00.051 -00.159 +00.319 +00.476 -00.477 -00.333 +00.178 -00.128 +00.185 +00.417 -00.364 +00.148 +00.081 +00.273 -00.267 -00.549 -00.003 -00.174 +00.167 +00.348 -00.322 -00.529 -00.422 -00.222 -00.243 -00.681 -00.415 -00.521 +00.419 -00.244 +00.001 +00.036 +00.122 -00.183 +00.029 +00.148 -00.021 -00.304 -00.494 -00.314 -00.337 -00.296 +00.303 +00.220 -00.373 -00.170 +00.371 -00.003 -00.270 -00.288 -00.381 -00.115 -00.183 +00.092 -00.317 -00.326 +00.391 +00.051 -00.199 +00.357 +00.315 +00.301 -00.102 -00.063 -00.383 +00.425 -00.408 +00.128 -00.326 -00.343 +00.285 -00.137 +00.007 +00.296 -00.463 -00.287 +00.145 +00.190 +00.181 -00.442 -00.357 -00.257 +00.443 +00.434 -00.356 -00.240 -00.339 -00.457 +00.314 -00.021 +00.404 +00.128 -00.220 -00.201 -00.424 -00.061 -00.192 -00.233 -00.347 +00.064 +00.034 +00.421 +00.095 +00.025 -00.123 +00.053 +00.265 -00.360 +00.016 +00.368 +00.125 +00.461 -00.308 +00.038 +00.377 -00.175 +00.290 -00.455 -00.127 +00.104 +00.025 -00.214 -00.233 +00.365 +00.176 -00.063 -00.089 +00.533 +00.183 -00.244 -00.353 +00.224 +00.486 +00.247 -00.249 -00.191 -00.018 -00.163 +00.291 -00.360 -00.427 -00.224 -00.452 -00.255 +00.303 +00.409 +00.071 +00.094 +00.472 +00.464 -00.284 +00.014 -00.235 +00.073 -00.055 +00.448 +00.336 -00.079 +00.027 -00.334 +00.167 +00.212 +00.391 +00.139 +00.100 -00.165 -00.303 -00.384 -00.078 +00.310 -00.307 -00.017 -00.417 -00.274 +00.233 +00.384 -00.351 -00.193 -00.042 -00.453 -00.281 +00.251 +00.168 +00.093 -00.304 +00.316 -00.279 +00.307 -00.352 +00.224 -00.493 -00.508 +00.148 +00.527 +00.250 -00.279 -00.381 +00.296 -00.210 +00.056 +00.110 -00.005 -00.451 +00.189 +00.220 +00.249 -00.002 +00.250 -00.482 -00.427 +00.551 -00.039 +00.379 +00.083 +00.329 +00.241 -00.391 -00.571 +00.169 +00.143 +00.415 +00.201 +00.117 -00.020 +00.076 -00.131 +00.270 +00.270 -00.296 -00.410 -00.165 +00.307 +00.061 -00.174 -00.061 -00.292 -00.414 -00.507 -00.330 -00.203 -00.274 -00.340 +00.143 +00.263 -00.102 -00.225 +00.194 +00.439 -00.041 -00.151 +00.001 -00.266 -00.479 -00.199 +00.439 +00.245 +00.261 +00.235 +00.019 +00.459 +00.285 +00.285 +00.206 -00.148 -00.361 -00.395 +00.080 -00.083 -00.028 +00.506 +00.259 -00.063 +00.328 -00.286 -00.111 +00.096 +00.078 -00.514 -00.113 -00.541 -00.049 -00.340 -00.045 +00.123 +00.050 -00.095 -00.132 -00.195 -00.393 +00.313 -00.300 +00.430 +00.226 -00.566 -00.272 +00.472 +00.038 -00.182 -00.028 +00.193 +00.454 -00.448 -00.254 +00.418 -00.350 -00.063 -00.121 +00.322 +00.179 -00.454 +00.475 -00.256 -00.238 -00.068 +00.362 +00.308 +00.319 -00.334 -00.456 +00.415 -00.450 -00.206 +00.336 +00.364 +00.053 -00.059 +00.317 +00.175 -00.156 -00.298 -00.061 -00.194 -00.399 +00.106 -00.267 +00.008 -00.182 +00.323 -00.062 -00.428 +00.398 -00.086 -00.190 -00.341 +00.342 -00.346 +00.418 +00.102 -00.214 -00.521 +00.045 -00.063 -00.094 -00.067 -00.410 +00.133 +00.241 -00.384 +00.142 -00.250 -00.168 -00.324 +00.189 +00.185 +00.459 -00.488 -00.276 -00.193 +00.343 +00.161 -00.123 +00.241 -00.438 +00.166 +00.371 +00.355 +00.258 +00.279 +00.052 -00.312 +00.281 -00.602 -00.065 -00.345 +00.240 -00.452 -00.181 +00.248 -00.162 -00.378 -00.358 +00.313 -00.121 +00.339 -00.013 -00.165 +00.351 +00.210 +00.141 +00.194 -00.136 -00.499 -00.097 -00.111 +00.093 -00.265 -00.196 -00.020 -00.462 +00.232 +00.088 -00.489 -00.327 +00.034 +00.109 -00.395 +00.253 -00.465 +00.423 -00.358 -00.315 -00.446 +00.426 +00.044 +00.388 -00.088 +00.379 +00.239 -00.377 +00.019 -00.073 -00.018 +00.018 +00.348 +00.382 -00.335 -00.408 -00.362 +00.142 -00.168 -00.263 +00.092 +00.066 -00.005 -00.269 -00.274 +00.134 -00.497 -00.224 +00.060 -00.371 -00.059 +00.109 -00.445 +00.486 -00.003 -00.033 +00.362 -00.269 +00.081 -00.133 +00.146 -00.430 +00.397 +00.005 -00.509 -00.359 +00.211 -00.183 +00.453 -00.360 +00.106 +00.108 +00.246 -00.368 +00.349 +00.478 +00.281 +00.353 -00.253 -00.160 +00.483 +00.188 +00.449 -00.462 +00.174 -00.054 +00.004 +00.037 +00.181 -00.406 +00.422 -00.150 -00.322 +00.346 +00.385 -00.298 -00.487 +00.127 +00.035 +00.489 +00.284 -00.351 +00.100 +00.033 -00.211 -00.047 +00.011 -00.430 
-00.193 +00.258 -00.090 -00.211 -00.054 -00.141 -00.173 -00.380 +00.305 +00.332 +00.159 -00.013 +00.427 +00.082 +00.337 -00.395 -00.072 +00.224 -00.192 -00.059 -00.148 +00.343 -00.069 -00.364 +00.493 -00.468 +00.169 -00.217 -00.014 -00.320 -00.147 +00.292 +00.438 +00.263 -00.419 -00.116 -00.378 -00.091 +00.005 +00.428 -00.258 -00.335 -00.085 -00.332 +00.249 -00.247 -00.225 -00.326 +00.476 +00.080 +00.115 -00.171 -00.077 -00.455 -00.036 -00.083 -00.422 -00.367 +00.200 +00.063 -00.187 -00.447 -00.145 -00.249 +00.331 -00.027 +00.166 +00.459 +00.366 -00.318 +00.409 -00.380 -00.146 -00.167 -00.217 -00.427 +00.051 +00.038 -00.276 +00.004 -00.397 +00.334 +00.331 +00.026 +00.379 -00.205 +00.443 +00.457 -00.073 +00.143 +00.021 +00.241 +00.223 +00.424 +00.527 +00.049 -00.123 +00.186 +00.039 -00.239 +00.387 -00.037 -00.156 -00.400 +00.091 -00.020 -00.399 -00.377 -00.486 -00.166 +00.130 -00.381 -00.332 -00.039 +00.145 -00.448 +00.278 +00.109 -00.480 -00.292 -00.206 +00.109 +00.502 +00.519 -00.057 +00.460 +00.016 +00.287 +00.053 +00.376 +00.359 -00.193 -00.371 -00.475 -00.163 +00.286 +00.093 -00.012 +00.431 +00.119 +00.321 +00.061 +00.238 +00.489 -00.474 -00.114 -00.461 +00.319 +00.564 -00.380 +00.546 -00.176 +00.121 +00.393 -00.377 +00.401 -00.008 -00.183 +00.038 -00.262 -00.189 -00.126 -00.019 +00.068 +00.095 -00.502 -00.020 -00.242 +00.002 -00.089 +00.378 -00.177 +00.455 +00.067 -00.206 +00.472 +00.491 -00.182 +00.262 +00.586 +00.011 +00.358 -00.030 +00.723 +00.093 -00.238 +00.338 -00.254 +00.119 -00.301 -00.060 -00.349 -00.471 -00.136 -00.481 +00.304 -00.087 -00.002 -00.441 +00.414 +00.394 +00.383 -00.309 +00.375 +00.024 +00.003 +00.426 +00.199 +00.545 +00.468 +00.457 +00.239 +00.134 +00.231 -00.445 +00.250 +00.234 -00.737 -00.393 +00.187 +00.169 -00.365 -00.300 +00.420 +00.067 -00.263 +00.221 +00.481 +00.213 +00.228 +00.372 +00.196 +00.258 -00.316 +00.240 -00.048 +00.419 +00.199 +00.658 +00.453 -00.334 -00.337 +00.094 -00.234 -00.735 -00.742 -00.311 -00.587 -00.269 +00.291 +00.389 -00.417 -00.486 -00.372 -00.497 +00.083 -00.125 +00.233 +00.145 -00.249 +00.168 +00.220 +00.486 -00.138 +00.253 -00.027 +00.189 -00.111 +00.093 -00.368 +00.204 +00.113 -00.073 -00.046 -00.530 +00.147 +00.352 +00.063 +00.208 -00.311 -00.074 +00.121 -00.233 -00.061 +00.274 -00.167 -00.326 -00.244 +00.617 +00.246 -00.137 +00.004 -00.492 +00.559 +00.325 +00.127 -00.389 -00.367 +00.405 +00.389 -00.164 +00.116 +00.103 -00.321 +00.031 +00.300 +00.353 -00.106 -00.138 +00.054 +00.079 +00.285 -00.299 +00.389 -00.202 +00.523 -00.318 -00.189 -00.510 -00.523 +00.382 -00.065 +00.299 +00.473 -00.375 -00.106 +00.124 +00.025 -00.014 -00.134 -00.129 -00.460 -00.307 +00.515 -00.323 +00.197 +00.269 -00.483 -00.410 -00.381 +00.092 +00.128 +00.391 +00.305 +00.057 -00.326 -00.032 -00.057 +00.022 +00.454 +00.470 +00.012 +00.711 +00.044 -00.219 -00.093 +00.188 +00.122 +00.136 -00.365 -00.443 -00.465 -00.369 -00.306 -00.500 -00.193 +00.390 +00.269 -00.197 +00.346 +00.300 +00.350 +00.042 +00.121 -00.204 -00.610 +00.519 +00.058 +00.645 +00.271 -00.185 +00.132 +00.217 -00.304 +00.355 +00.178 -00.358 -00.118 -00.165 +00.397 +00.011 -00.205 +00.356 +00.140 -00.011 +00.339 +00.357 -00.377 -00.111 -00.468 -00.392 -00.307 -00.812 -00.837 -00.307 +00.367 +00.072 +00.223 -00.206 +00.430 +00.295 -00.322 -00.107 -00.286 -00.425 -00.333 +00.483 -00.107 +00.092 -00.286 -00.316 -00.401 +00.013 -00.502 +00.124 +00.168 +00.050 -00.228 -00.519 -00.432 +00.139 +00.031 -00.432 -00.287 +00.416 +00.009 +00.368 +00.293 +00.275 -00.459 +00.240 -00.147 -00.379 -00.255 +00.195 -00.125 -00.075 +00.052 +00.166 -00.480 +00.270 +00.309 -00.497 -00.565 -00.093 -00.151 -00.683 -00.005 -00.034 +00.250 -00.101 -00.011 -00.247 -00.233 -00.210 -00.584 +00.144 -00.032 -00.629 -00.094 +00.035 +00.354 +00.370 +00.276 -00.428 -00.053 -00.406 +00.007 +00.498 +00.258 -00.066 -00.075 -00.419 -00.283 -00.754 -00.127 +00.055 -00.032 -00.251 -00.612 +00.225 -00.082 -00.299 -00.391 +00.411 -00.399 -00.046 +00.225 +00.173 -00.013 -00.361 -00.260 -00.165 +00.483 -00.479 -00.065 -00.059 -00.346 +00.399 -00.386 -00.054 -00.317 -00.438 +00.061 -00.209 -00.066 +00.505 +00.086 +00.008 -00.286 -00.062 -00.190 +00.283 -00.418 +00.395 +00.415 -00.215 -00.184 +00.005 +00.430 +00.335 +00.181 -00.314 -00.310 +00.169 -00.248 +00.118 -00.605 -00.519 -00.226 -00.105 -00.294 -00.366 +00.344 +00.219 -00.301 +00.523 +00.305 +00.193 -00.084 +00.322 -00.098 -00.351 +00.413 -00.078 +00.360 +00.111 +00.189 -00.277 -00.342 +00.130 -00.442 +00.342 +00.365 -00.236 -00.066 -00.728 +00.091 -00.012 -00.182 -00.070 -00.385 +00.056 +00.088 +00.577 -00.082 +00.156 +00.222 +00.296 -00.096 -00.053 +00.341 +00.068 -00.152 +00.154 -00.451 -00.235 -00.206 +00.246 -00.013 -00.047 -00.100 +00.049 -00.244 -00.476 +00.070 +00.147 -00.419 +00.008 -00.212 +00.106 -00.288 +00.219 -00.241 +00.132 -00.211 -00.393 -00.448 -00.316 -00.296 -00.102 +00.108 -00.426 -00.459 +00.487 +00.236 -00.408 -00.247 -00.473 +00.339 +00.229 -00.045 -00.370 -00.354 +00.249 -00.200 -00.546 +00.051 +00.201 +00.235 +00.483 -00.295 +00.240 -00.247 -00.548 -00.276 +00.451 +00.076 -00.041 -00.276 +00.344 +00.441 +00.342 +00.415 +00.487 +00.332 +00.151 -00.413 -00.416 +00.207 +00.446 +00.333 -00.313 -00.338 -00.375 +00.515 +00.173 -00.279 +00.019 -00.352 +00.333 -00.155 -00.318 +00.183 -00.358 +00.136 -00.461 -00.465 -00.278 +00.061 -00.229 -00.439 +00.004 -00.386 +00.476 -00.004 +00.470 +00.191 +00.183 -00.319 -00.021 +00.154 +00.510 +00.173 +00.237 +00.433 -00.147 -00.323 -00.337 +00.415 -00.150 +00.537 +00.030 +00.181 +00.175 +00.023 -00.248 +00.226 +00.067 -00.023 -00.212 +00.338 +00.038 +00.291 +00.450 +00.041 -00.152 +00.475 -00.222 +00.568 +00.646 +00.108 +00.041 +00.435 +00.522 +00.581 +00.389 -00.001 -00.218 +00.446 -00.162 -00.042 +00.325 +00.246 -00.437 -00.013 -00.229 -00.182 -00.287 +00.338 +00.295 +00.001 +00.179 -00.160 -00.196 +00.149 +00.400 +00.147 +00.129 +00.562 +00.006 +00.043 +00.035 +00.344 -00.202 -00.049 +00.300 +00.496 +00.222 +00.362 +00.298 +00.494 -00.244 +00.101 +00.236 -00.181 -00.412 -00.493 +00.137 -00.199 +00.344 -00.068 +00.302 +00.022 +00.267 -00.405 -00.350 +00.114 +00.168 +00.180 +00.119 -00.397 -00.357 -00.446 +00.366 -00.133 -00.084 +00.090 -00.180 -00.379 -00.077 -00.394 -00.387 +00.179 
+00.207 +00.349 +00.498 +00.295 +00.356 +00.135 -00.404 +00.200 -00.434 +00.397 -00.280 +00.332 +00.491 -00.131 -00.055 +00.159 -00.456 -00.451 +00.255 -00.326 -00.406 +00.117 +00.036 +00.006 -00.296 +00.355 +00.126 +00.127 +00.461 +00.240 -00.195 +00.168 +00.089 -00.197 -00.037 -00.056 +00.437 +00.058 -00.356 -00.496 -00.044 -00.135 +00.336 -00.050 +00.239 -00.219 -00.394 +00.277 -00.171 +00.361 +00.451 -00.077 -00.022 -00.013 +00.429 +00.183 -00.158 +00.055 -00.191 -00.197 -00.205 +00.114 +00.470 +00.383 +00.417 -00.076 -00.171 +00.360 +00.498 -00.022 +00.362 -00.052 +00.342 +00.208 +00.419 +00.084 +00.470 -00.506 -00.151 -00.193 +00.365 -00.201 +00.229 -00.157 +00.287 +00.158 -00.475 -00.371 -00.287 -00.167 -00.072 +00.006 +00.445 -00.110 -00.113 +00.378 +00.358 +00.274 +00.292 +00.414 -00.236 +00.149 -00.149 -00.423 -00.192 -00.322 +00.112 -00.242 -00.321 +00.447 +00.057 -00.456 -00.254 -00.214 -00.114 -00.468 +00.441 -00.093 -00.343 -00.359 +00.203 +00.055 +00.140 +00.235 +00.617 -00.288 +00.262 +00.539 +00.470 -00.043 +00.318 +00.578 +00.469 +00.516 +00.539 -00.336 -00.373 +00.093 -00.107 -00.203 +00.038 +00.450 -00.159 +00.283 -00.261 +00.227 +00.320 -00.336 -00.390 +00.458 -00.182 +00.365 +00.118 +00.576 +00.161 +00.174 -00.344 -00.281 -00.032 +00.386 +00.005 -00.327 +00.376 -00.200 -00.482 +00.294 -00.070 -00.378 -00.125 +00.322 -00.082 +00.412 +00.284 +00.290 +00.253 -00.435 +00.017 +00.049 -00.321 +00.028 -00.077 -00.122 -00.245 -00.799 -00.271 -00.597 +00.082 +00.055 -00.257 -00.433 -00.083 +00.138 -00.396 -00.304 +00.438 -00.409 +00.475 -00.126 -00.280 -00.152 -00.273 +00.204 -00.120 +00.579 -00.061 +00.487 +00.414 +00.276 -00.095 -00.477 -00.229 -00.031 -00.307 -00.700 -00.468 -00.280 -00.451 +00.111 +00.275 -00.205 +00.167 -00.318 +00.502 +00.282 -00.132 +00.442 +00.383 -00.158 -00.146 -00.301 +00.340 +00.149 +00.249 +00.377 -00.140 -00.452 +00.367 -00.010 -00.432 -00.196 -00.028 -00.034 -00.055 -00.057 +00.044 -00.135 +00.013 +00.096 -00.511 -00.208 -00.478 +00.223 -00.042 -00.486 +00.015 +00.342 +00.517 +00.027 -00.179 -00.140 -00.073 +00.219 +00.154 -00.379 +00.307 -00.126 +00.103 +00.373 +00.343 +00.036 -00.196 -00.112 +00.355 -00.061 +00.076 -00.109 +00.281 -00.354 -00.329 +00.365 -00.086 -00.312 +00.095 +00.420 -00.202 -00.262 +00.292 -00.347 -00.079 +00.196 -00.206 +00.296 +00.219 -00.192 -00.035 +00.276 +00.160 +00.276 -00.096 -00.323 +00.442 -00.190 -00.139 +00.286 +00.281 -00.363 -00.091 +00.139 -00.252 +00.076 +00.010 +00.214 +00.346 -00.348 +00.033 +00.331 -00.403 -00.388 -00.557 +00.057 -00.549 +00.082 +00.253 +00.469 +00.357 +00.498 -00.002 -00.379 -00.140 -00.050 -00.364 -00.252 +00.386 +00.310 -00.192 +00.246 +00.416 +00.212 -00.097 -00.282 -00.151 +00.388 +00.266 -00.560 +00.322 -00.347 +00.295 -00.477 -00.182 -00.507 +00.259 +00.093 +00.041 +00.101 +00.185 -00.089 -00.227 +00.144 -00.200 +00.100 -00.160 +00.299 -00.349 -00.150 +00.099 -00.044 -00.373 +00.059 -00.279 -00.048 +00.107 -00.161 -00.331 -00.245 -00.251 -00.369 +00.009 -00.315 -00.260 -00.308 +00.046 +00.035 -00.077 -00.058 +00.325 +00.013 -00.122 -00.502 -00.112 -00.473 +00.412 +00.371 +00.328 -00.437 -00.275 -00.057 +00.050 -00.218 +00.397 +00.093 +00.145 -00.170 -00.704 -00.654 -00.712 -00.103 -00.200 +00.336 -00.306 -00.216 +00.327 +00.561 -00.061 +00.039 +00.352 -00.417 -00.339 +00.017 -00.129 +00.175 +00.036 -00.217 +00.046 -00.122 -00.163 +00.219 +00.268 +00.371 -00.500 -00.045 -00.408 -00.013 -00.430 +00.066 -00.435 -00.020 -00.131 +00.312 +00.337 +00.255 +00.214 +00.443 -00.359 +00.391 -00.053 -00.333 -00.300 +00.218 +00.175 +00.069 -00.107 -00.277 +00.374 +00.407 +00.072 -00.271 +00.170 -00.401 -00.914 -00.198 -00.666 +00.176 +00.479 +00.110 -00.081 +00.406 +00.658 +00.356 -00.043 -00.036 -00.413 +00.355 -00.220 -00.184 +00.397 +00.324 -00.010 -00.410 +00.042 -00.324 +00.187 +00.454 -00.072 +00.031 +00.296 +00.242 -00.122 -00.193 -00.210 +00.635 +00.341 +00.149 +00.058 -00.325 +00.469 +00.207 +00.360 +00.344 -00.187 -00.437 -00.296 -00.050 +00.501 +00.025 +00.264 +00.383 -00.148 -00.226 +00.491 +00.391 -00.040 +00.130 +00.167 +00.052 -00.505 +00.174 +00.499 +00.841 +00.189 -00.236 +00.230 +00.249 +00.040 -00.486 +00.221 -00.158 +00.173 -00.005 -00.351 -00.445 +00.072 -00.152 -00.018 +00.059 +00.379 -00.220 -00.011 -00.277 -00.003 -00.122 -00.556 +00.258 -00.524 +00.526 +00.532 +00.033 +00.445 +00.131 -00.356 +00.509 +00.115 +00.163 +00.051 +00.459 +00.154 -00.227 -00.167 -00.119 +00.265 -00.029 -00.089 -00.168 +00.322 +00.429 +00.443 +00.190 -00.369 -00.171 +00.366 +00.091 +00.312 -00.290 +00.347 +00.582 +00.643 -00.096 +00.584 +00.168 +00.240 -00.563 -00.015 -00.264 +00.154 -00.401 -00.270 -00.159 -00.134 +00.059 +00.212 -00.368 -00.467 -00.349 +00.003 +00.364 -00.493 -00.107 +00.079 -00.319 +00.209 -00.022 +00.362 +00.061 +00.040 -00.041 -00.140 -00.095 +00.042 -00.386 -00.489 -00.170 -00.306 +00.023 +00.084 +00.388 +00.115 +00.320 -00.273 +00.487 -00.118 +00.456 -00.361 -00.057 -00.411 +00.137 -00.175 -00.368 +00.365 +00.115 -00.525 -00.001 -00.318 -00.378 -00.342 +00.102 -00.221 -00.332 -00.460 -00.546 -00.047 -00.393 -00.151 +00.203 +00.137 +00.440 +00.090 -00.242 +00.259 +00.320 -00.236 -00.337 +00.290 -00.090 +00.092 +00.336 +00.400 +00.108 +00.114 +00.290 +00.094 -00.326 -00.012 +00.236 -00.422 -00.023 -00.065 -00.021 +00.297 +00.085 +00.042 -00.167 +00.201 +00.392 -00.464 -00.156 +00.331 +00.124 +00.097 +00.101 -00.031 +00.346 +00.193 -00.312 -00.268 -00.233 -00.530 -00.352 -00.424 +00.405 -00.453 +00.142 -00.524 -00.041 -00.105 -00.331 -00.429 +00.445 +00.255 +00.453 +00.051 -00.203 -00.214 -00.245 -00.311 -00.177 +00.105 -00.458 +00.464 -00.289 +00.115 -00.037 -00.340 -00.083 +00.087 -00.159 +00.209 +00.263 -00.041 +00.113 -00.088 -00.149 -00.236 +00.044 +00.473 +00.300 +00.306 -00.397 +00.268 +00.061 -00.444 -00.181 +00.358 -00.158 +00.074 -00.438 +00.191 -00.290 -00.411 +00.127 -00.061 +00.238 -00.471 -00.017 -00.434 +00.140 +00.238 +00.146 -00.317 -00.438 -00.216 +00.236 +00.033 +00.153 -00.157 +00.043 -00.033 -00.351 +00.146 -00.265 +00.209 +00.202 +00.053 +00.068 -00.455 -00.366 +00.118 +00.209 -00.192 +00.192 -00.153 +00.199 -00.133 -00.158 -00.375 -00.097 +00.425 +00.268 +00.498 -00.360 +00.364 -00.187 +00.389 -00.091 +00.471 -00.268 
+00.453 -00.062 -00.120 +00.099 +00.172 -00.410 -00.200 -00.274 +00.157 -00.156 -00.148 -00.230 -00.449 +00.151 +00.449 -00.129 -00.179 -00.195 +00.195 -00.089 +00.175 +00.117 -00.320 +00.174 +00.254 -00.458 +00.488 +00.143 -00.049 +00.459 +00.374 -00.096 -00.104 -00.245 -00.497 -00.431 -00.155 -00.197 -00.206 -00.498 +00.148 +00.147 -00.228 +00.199 -00.208 -00.279 -00.427 +00.120 +00.025 +00.264 -00.469 -00.299 -00.119 -00.290 +00.374 -00.365 -00.248 +00.362 +00.277 +00.203 +00.321 +00.152 -00.392 -00.284 +00.404 -00.373 -00.201 -00.239 -00.076 +00.128 -00.183 -00.375 -00.222 +00.064 +00.286 +00.039 +00.260 +00.345 -00.353 -00.234 +00.092 -00.328 -00.034 +00.472 -00.119 -00.160 -00.393 +00.133 -00.298 +00.386 -00.162 -00.489 +00.022 -00.076 -00.297 -00.093 +00.042 +00.065 +00.305 +00.552 -00.387 +00.485 -00.400 -00.093 +00.017 +00.323 +00.378 -00.286 +00.114 +00.494 -00.027 -00.294 -00.334 +00.438 -00.322 +00.050 -00.210 -00.203 -00.318 -00.033 -00.328 -00.014 -00.044 +00.168 +00.407 +00.268 -00.290 +00.043 -00.268 +00.312 +00.001 -00.077 +00.317 +00.062 +00.246 -00.238 -00.208 +00.052 -00.046 +00.407 +00.044 +00.427 -00.387 +00.214 +00.368 -00.212 -00.239 -00.346 +00.110 -00.063 +00.102 +00.200 +00.430 -00.297 +00.050 +00.515 +00.454 +00.138 -00.010 -00.246 +00.028 +00.448 +00.035 -00.256 -00.076 -00.296 -00.033 +00.207 +00.246 +00.420 +00.114 -00.203 +00.345 +00.193 -00.505 +00.249 -00.415 -00.191 +00.344 +00.075 +00.246 +00.015 -00.138 +00.127 +00.095 +00.277 +00.030 -00.020 -00.069 +00.490 +00.129 +00.381 +00.444 -00.374 -00.444 -00.181 -00.203 +00.013 -00.480 -00.453 -00.071 +00.116 -00.177 -00.173 -00.089 -00.112 +00.482 -00.151 +00.085 +00.316 +00.335 -00.290 -00.162 -00.143 +00.418 +00.336 -00.424 -00.017 -00.005 +00.136 +00.105 -00.436 -00.162 -00.101 -00.387 -00.131 +00.210 -00.084 +00.379 +00.231 -00.038 -00.128 -00.047 +00.325 +00.079 +00.145 -00.459 -00.056 -00.480 +00.259 +00.051 -00.385 -00.519 +00.227 -00.132 +00.445 +00.321 +00.169 +00.101 -00.329 +00.499 +00.447 -00.375 -00.188 -00.157 -00.265 +00.176 -00.432 +00.215 +00.156 +00.404 -00.332 +00.314 -00.446 +00.308 -00.045 +00.461 -00.322 -00.407 +00.275 +00.061 -00.100 -00.495 +00.267 -00.125 +00.073 +00.294 +00.504 +00.418 -00.382 -00.424 +00.405 -00.436 -00.306 -00.296 -00.070 +00.061 +00.528 +00.056 -00.347 -00.063 -00.324 -00.270 -00.021 +00.118 -00.311 +00.100 -00.637 -00.639 +00.212 -00.286 +00.335 -00.057 -00.113 +00.105 +00.122 +00.184 -00.299 +00.054 +00.094 -00.181 +00.120 -00.019 -00.093 +00.465 +00.320 +00.350 -00.204 +00.084 -00.205 +00.015 -00.235 +00.181 -00.005 -00.446 -00.026 -00.084 -00.432 -00.357 +00.291 -00.357 -00.002 +00.078 -00.154 +00.096 -00.448 +00.434 -00.230 -00.248 -00.021 +00.356 +00.115 -00.233 -00.043 +00.466 +00.436 -00.451 +00.318 -00.129 +00.394 +00.583 -00.041 -00.058 -00.331 -00.537 -00.490 -00.122 +00.354 -00.095 +00.130 +00.066 -00.226 +00.291 +00.493 +00.112 -00.121 -00.456 +00.041 +00.150 -00.159 -00.327 +00.090 +00.370 -00.357 +00.373 +00.382 -00.264 +00.550 +00.130 -00.268 -00.233 -00.355 +00.140 -00.296 -00.487 -00.374 +00.042 -00.016 +00.430 +00.214 +00.292 -00.221 +00.446 +00.080 -00.229 +00.052 +00.455 -00.157 -00.300 +00.113 +00.077 -00.382 -00.417 -00.055 -00.210 +00.503 -00.159 -00.247 -00.069 -00.159 -00.096 -00.103 -00.053 +00.274 +00.510 +00.051 +00.304 -00.179 +00.228 -00.016 +00.461 +00.020 +00.262 +00.395 -00.420 -00.488 -00.052 -00.497 -00.200 -00.085 +00.060 +00.378 +00.247 +00.412 +00.005 +00.308 -00.185 -00.144 -00.318 +00.153 +00.179 -00.226 -00.115 +00.599 +00.319 -00.358 -00.144 -00.073 -00.096 -00.408 +00.411 -00.153 +00.076 +00.082 -00.376 +00.067 +00.039 +00.079 +00.205 -00.418 -00.139 +00.031 -00.496 -00.750 -00.680 -00.343 -00.693 -00.564 -00.250 +00.031 +00.289 +00.297 +00.007 +00.454 +00.234 -00.236 -00.399 -00.388 +00.190 -00.004 -00.323 -00.008 +00.197 +00.182 -00.329 -00.404 +00.043 +00.501 +00.322 -00.334 -00.658 -00.672 -00.110 -00.674 -00.379 +00.515 +00.148 -00.184 +00.525 +00.174 +00.019 +00.151 -00.040 -00.398 +00.183 -00.277 -00.132 +00.293 -00.189 -00.535 -00.374 -00.073 +00.130 -00.305 -00.100 +00.417 -00.275 +00.221 +00.187 -00.603 -00.538 +00.335 -00.119 +00.518 -00.366 +00.128 +00.378 -00.044 +00.132 +00.310 -00.288 -00.191 +00.062 +00.191 -00.086 -00.246 +00.405 +00.242 -00.581 -00.343 +00.354 -00.058 +00.420 +00.087 +00.057 -00.350 -00.129 +00.239 -00.495 -00.101 +00.573 -00.136 -00.016 -00.095 -00.379 -00.227 +00.242 +00.462 +00.327 +00.044 +00.352 -00.456 +00.354 -00.091 +00.230 -00.249 +00.112 +00.167 -00.301 +00.404 +00.588 +00.603 -00.228 +00.481 +00.121 +00.177 +00.505 +00.510 -00.074 +00.484 -00.249 -00.238 -00.464 -00.095 -00.057 -00.361 +00.258 -00.192 -00.363 +00.083 +00.354 +00.493 +00.125 +00.203 -00.059 -00.039 +00.647 -00.200 -00.225 -00.194 +00.591 +00.777 +00.788 +00.600 +00.343 -00.053 -00.122 -00.028 -00.408 -00.021 -00.255 -00.310 +00.163 -00.216 +00.150 -00.341 -00.071 -00.098 -00.033 +00.070 +00.491 -00.165 +00.097 +00.193 -00.335 +00.654 +00.717 +00.719 -00.213 +00.781 -00.236 +00.464 +00.485 +00.446 +00.054 -00.017 -00.356 +00.233 +00.384 -00.302 -00.280 -00.366 -00.097 +00.400 -00.080 -00.451 -00.442 +00.353 -00.048 +00.043 -00.024 +00.018 +00.470 +00.674 -00.236 +00.512 +00.642 -00.196 +00.585 +00.581 +00.514 +00.383 +00.220 +00.403 +00.260 -00.259 -00.144 +00.388 +00.475 -00.252 -00.410 -00.297 -00.116 -00.007 -00.397 +00.307 +00.051 -00.335 +00.177 +00.499 +00.190 -00.371 -00.021 +00.058 -00.380 +00.081 -00.034 +00.512 -00.036 -00.286 +00.388 -00.019 -00.401 +00.143 -00.128 +00.343 +00.364 +00.238 +00.238 +00.342 +00.487 +00.328 -00.455 -00.130 -00.184 -00.364 -00.342 +00.321 -00.225 +00.283 +00.253 +00.370 +00.303 -00.282 -00.022 +00.385 +00.166 +00.345 +00.361 -00.284 -00.356 +00.334 +00.237 -00.232 -00.031 -00.388 -00.382 -00.166 +00.350 +00.355 -00.324 +00.337 +00.182 -00.283 -00.296 -00.504 -00.143 -00.131 +00.339 +00.136 -00.323 +00.207 +00.159 -00.419 -00.532 -00.342 -00.461 +00.259 -00.389 +00.471 -00.493 -00.223 +00.304 +00.244 +00.046 -00.227 +00.356 +00.164 +00.108 +00.206 +00.019 +00.284 +00.043 -00.297 -00.495 +00.251 -00.292 -00.126 -00.367 -00.426 -00.450 -00.157 +00.295 +00.225 -00.041 +00.303 +00.423 +00.019 +00.065 -00.465 -00.012 +00.072 -00.187 -00.208 
-00.185 +00.359 +00.065 -00.329 +00.023 -00.327 +00.378 -00.458 +00.457 -00.079 -00.255 +00.462 -00.328 -00.046 -00.163 -00.192 +00.030 -00.110 +00.157 -00.171 -00.384 -00.381 -00.367 -00.461 +00.137 +00.197 -00.425 -00.376 -00.231 -00.113 -00.084 +00.084 -00.254 +00.481 +00.255 +00.269 -00.346 +00.133 +00.311 -00.390 -00.449 -00.444 -00.428 -00.283 -00.006 -00.094 +00.032 -00.461 +00.299 -00.310 -00.135 +00.411 -00.191 +00.002 +00.455 +00.446 -00.301 -00.470 -00.430 -00.032 -00.083 -00.014 -00.448 +00.163 -00.034 +00.307 -00.074 +00.114 -00.076 -00.281 +00.200 -00.042 -00.229 +00.288 +00.225 +00.315 -00.291 -00.255 +00.345 -00.492 -00.057 -00.280 +00.428 +00.253 +00.222 +00.383 +00.198 +00.420 +00.413 +00.269 -00.114 -00.178 -00.269 -00.095 +00.439 +00.158 -00.330 -00.169 -00.216 +00.144 +00.097 -00.484 -00.375 +00.455 +00.372 +00.389 +00.277 -00.409 -00.349 +00.132 -00.398 +00.094 +00.352 -00.470 -00.153 +00.074 +00.412 -00.458 -00.011 +00.317 +00.292 +00.323 -00.433 -00.537 -00.291 -00.471 +00.202 -00.022 +00.004 -00.353 -00.203 -00.279 -00.299 -00.034 -00.201 -00.363 -00.155 +00.497 -00.330 -00.018 +00.131 -00.228 -00.424 -00.018 -00.200 -00.085 -00.469 -00.327 -00.090 -00.040 -00.624 -00.451 -00.274 -00.608 -00.527 -00.029 -00.365 -00.522 -00.281 +00.315 -00.337 +00.066 -00.254 -00.005 -00.489 -00.128 +00.053 -00.157 -00.112 +00.226 +00.324 -00.479 +00.501 +00.397 -00.058 -00.290 -00.271 -00.118 -00.257 -00.037 -00.606 -00.159 -00.504 +00.057 +00.265 -00.078 -00.164 -00.471 -00.051 +00.129 -00.470 +00.301 -00.315 -00.319 -00.206 -00.292 +00.091 +00.355 +00.058 +00.480 +00.077 -00.149 +00.393 -00.026 -00.324 -00.199 +00.100 -00.071 -00.419 -00.011 +00.087 -00.143 +00.571 +00.044 +00.260 +00.151 +00.331 -00.505 +00.246 -00.141 +00.084 +00.307 -00.237 +00.345 -00.460 +00.071 -00.434 +00.129 -00.094 +00.061 -00.019 -00.609 -00.577 -00.027 -00.110 -00.275 -00.341 +00.050 +00.478 -00.226 +00.412 -00.190 -00.200 +00.069 +00.111 -00.525 -00.142 -00.024 -00.534 -00.195 -00.414 +00.222 -00.325 -00.136 +00.079 -00.288 +00.402 +00.065 +00.213 -00.202 -00.267 -00.126 -00.152 -00.231 -00.432 +00.492 +00.133 -00.155 +00.049 +00.006 -00.243 -00.445 +00.085 -00.003 -00.591 -00.181 +00.099 +00.116 -00.318 +00.331 +00.485 -00.228 +00.060 -00.348 +00.107 -00.426 -00.210 +00.050 +00.298 -00.224 +00.502 -00.448 +00.054 -00.263 -00.130 +00.415 +00.034 +00.490 +00.324 -00.015 -00.364 -00.421 -00.668 -00.523 +00.354 -00.395 +00.179 +00.216 +00.301 +00.360 +00.048 +00.278 -00.390 -00.410 +00.422 +00.311 -00.166 -00.001 -00.146 -00.639 -00.235 -00.359 -00.290 +00.012 +00.353 -00.036 +00.367 +00.265 -00.302 +00.326 -00.047 +00.092 -00.380 +00.098 +00.320 -00.351 +00.269 +00.005 +00.363 +00.067 -00.137 -00.047 -00.099 +00.120 +00.213 -00.019 -00.205 +00.025 -00.172 +00.076 +00.575 +00.089 +00.609 +00.384 -00.096 +00.009 -00.252 -00.132 -00.207 -00.008 -00.238 +00.414 -00.295 -00.026 +00.043 -00.464 +00.119 -00.193 +00.044 +00.069 +00.466 +00.562 +00.576 -00.095 -00.106 -00.224 -00.167 +00.319 +00.191 +00.141 -00.049 +00.536 -00.066 -00.256 +00.304 +00.239 +00.074 -00.505 -00.399 +00.430 +00.059 -00.079 +00.368 +00.270 +00.396 -00.087 +00.316 +00.114 +00.344 +00.008 -00.322 +00.193 -00.227 +00.364 +00.355 +00.392 +00.233 +00.178 +00.007 +00.173 +00.223 +00.114 -00.042 +00.364 +00.208 -00.270 +00.113 -00.180 -00.214 +00.277 -00.221 +00.344 -00.301 -00.354 +00.127 -00.321 +00.178 +00.033 +00.256 -00.113 +00.292 +00.105 +00.388 -00.290 +00.298 +00.368 +00.321 +00.545 -00.339 +00.361 -00.201 +00.125 +00.019 +00.309 +00.076 -00.202 -00.384 -00.272 +00.138 -00.103 -00.501 +00.406 -00.258 -00.285 -00.384 +00.447 -00.078 +00.228 -00.223 +00.449 +00.494 -00.209 +00.234 +00.335 -00.334 -00.389 -00.012 +00.027 +00.291 +00.050 +00.129 -00.222 -00.194 -00.215 -00.309 +00.406 +00.094 -00.201 -00.376 -00.287 +00.173 -00.419 -00.453 +00.383 -00.169 -00.340 +00.216 +00.138 +00.467 -00.121 +00.223 +00.183 -00.411 -00.446 -00.058 -00.518 -00.512 -00.581 +00.295 -00.461 +00.148 +00.100 -00.054 -00.472 +00.414 +00.135 +00.432 -00.008 +00.394 -00.529 +00.028 -00.098 -00.499 +00.116 -00.083 -00.008 -00.326 -00.026 -00.253 +00.316 -00.263 +00.128 +00.014 -00.114 +00.184 -00.442 +00.098 -00.572 -00.276 +00.116 -00.367 +00.475 -00.250 +00.083 -00.495 -00.338 -00.315 +00.306 -00.038 -00.667 -00.868 -00.459 +00.015 -00.409 -00.297 -00.169 +00.181 -00.278 -00.069 +00.206 -00.410 -00.515 +00.089 -00.587 +00.095 +00.001 -00.292 -00.072 +00.095 +00.008 -00.439 +00.230 -00.023 -00.200 -00.227 -00.140 -00.198 -00.242 -00.424 -00.673 -00.118 -00.259 -00.088 -00.153 +00.069 +00.141 +00.019 -00.360 -00.452 -00.113 -00.191 +00.005 +00.076 -00.423 +00.109 -00.111 +00.213 +00.365 +00.328 -00.189 -00.139 +00.375 -00.508 +00.262 -00.444 -00.346 -00.319 -00.053 +00.127 +00.050 +00.177 +00.001 -00.425 -00.330 -00.749 +00.173 -00.391 +00.266 -00.238 -00.077 -00.200 +00.189 -00.390 -00.434 +00.364 +00.241 -00.036 +00.080 +00.100 -00.217 +00.357 +00.436 -00.435 +00.277 +00.279 -00.191 -00.385 -00.564 -00.746 -00.517 +00.309 +00.095 +00.039 -00.411 -00.303 +00.292 -00.453 -00.048 +00.082 -00.134 -00.494 -00.494 -00.404 -00.385 -00.425 +00.462 +00.356 +00.036 +00.035 -00.032 +00.303 -00.129 -00.012 -00.441 -00.192 -00.412 -00.425 -00.098 -00.232 -00.287 +00.150 -00.072 -00.112 +00.164 +00.144 +00.103 -00.130 +00.151 -00.423 +00.475 -00.483 -00.420 +00.482 -00.385 -00.306 -00.445 -00.410 -00.412 +00.089 +00.088 -00.015 -00.074 -00.430 +00.434 -00.162 -00.271 -00.467 +00.123 -00.506 +00.255 -00.127 +00.482 -00.307 +00.174 +00.025 +00.221 -00.310 +00.323 -00.148 -00.232 +00.299 -00.130 -00.152 +00.283 +00.001 +00.067 +00.353 +00.082 +00.151 -00.025 -00.264 -00.273 +00.467 -00.210 -00.420 -00.239 +00.199 -00.080 -00.256 +00.290 +00.545 -00.010 +00.158 -00.385 -00.454 -00.400 +00.300 -00.266 +00.424 -00.348 +00.002 +00.223 +00.022 +00.341 -00.009 -00.495 -00.091 -00.141 +00.031 +00.438 +00.259 +00.242 -00.438 +00.101 +00.456 -00.350 +00.462 +00.137 -00.045 -00.391 -00.133 -00.074 +00.024 +00.483 +00.015 +00.067 -00.416 -00.186 +00.301 -00.492 -00.034 -00.197 +00.231 +00.486 -00.348 -00.266 +00.494 +00.041 +00.065 +00.049 +00.020 -00.155 -00.202 +00.107 +00.491 -00.208 +00.263 +00.435 +00.425 -00.299 -00.472 -00.219 +00.121 +00.052 
-00.235 -00.364 -00.381 -00.152 -00.050 +00.420 -00.144 +00.416 -00.278 -00.414 +00.404 -00.125 -00.180 +00.399 +00.419 +00.395 -00.039 -00.052 -00.255 +00.272 -00.435 -00.266 -00.436 +00.329 -00.330 +00.488 -00.470 -00.301 -00.231 +00.151 +00.251 +00.034 +00.287 +00.370 +00.382 -00.263 +00.289 -00.262 -00.347 -00.488 -00.176 -00.445 -00.114 +00.144 +00.463 -00.192 +00.039 -00.083 +00.254 +00.283 -00.311 +00.319 -00.482 -00.247 +00.149 -00.312 -00.259 +00.179 -00.114 +00.010 -00.169 -00.363 -00.456 -00.382 -00.493 +00.426 -00.135 +00.307 -00.330 +00.004 +00.304 -00.022 +00.063 -00.305 -00.372 +00.018 -00.000 +00.171 +00.438 -00.244 -00.045 -00.372 -00.426 -00.028 -00.119 +00.223 +00.160 +00.122 -00.098 -00.454 -00.368 +00.233 -00.318 -00.319 +00.361 -00.303 -00.394 -00.286 +00.493 -00.232 +00.226 +00.303 +00.250 -00.229 +00.488 +00.385 +00.299 -00.007 +00.057 +00.236 +00.245 -00.489 +00.364 +00.319 -00.016 -00.256 +00.042 -00.358 +00.365 +00.445 -00.310 +00.502 +00.187 -00.099 -00.286 +00.053 +00.089 -00.190 +00.269 +00.073 +00.051 -00.049 -00.140 -00.193 +00.228 -00.161 -00.320 +00.018 +00.328 +00.235 -00.247 +00.073 +00.247 -00.383 -00.109 -00.268 -00.138 +00.441 -00.118 -00.265 +00.379 +00.080 -00.221 +00.109 +00.486 -00.058 -00.358 +00.074 +00.230 +00.352 -00.399 -00.239 -00.214 -00.089 +00.011 +00.478 +00.238 +00.183 -00.010 +00.066 -00.082 +00.243 -00.361 -00.329 +00.357 +00.039 -00.099 -00.286 -00.031 +00.280 -00.024 -00.146 -00.195 +00.149 +00.425 -00.136 -00.346 +00.549 +00.340 +00.296 +00.320 +00.336 +00.459 -00.451 -00.271 -00.041 -00.481 +00.465 -00.358 +00.006 +00.027 +00.063 -00.255 +00.157 +00.190 -00.419 -00.353 -00.438 -00.194 +00.157 +00.359 +00.247 -00.454 -00.165 +00.059 +00.497 +00.047 +00.069 +00.424 -00.208 -00.222 +00.192 -00.398 -00.278 +00.234 -00.173 +00.181 +00.250 -00.215 +00.320 -00.257 +00.261 -00.203 -00.070 -00.090 -00.447 +00.150 +00.245 -00.230 +00.477 -00.089 -00.286 +00.327 -00.040 -00.098 -00.271 -00.178 +00.369 +00.231 -00.311 -00.378 +00.494 +00.375 -00.280 -00.285 +00.106 +00.036 +00.376 -00.198 +00.230 +00.118 +00.026 +00.130 -00.369 -00.266 -00.221 -00.200 +00.295 +00.399 -00.016 +00.265 -00.250 +00.078 -00.028 +00.089 +00.408 +00.176 +00.384 +00.267 -00.095 -00.426 +00.387 -00.102 +00.448 -00.408 +00.068 -00.037 +00.040 -00.089 +00.375 +00.040 -00.193 +00.157 -00.238 -00.066 +00.229 -00.129 +00.092 -00.041 -00.347 +00.504 -00.323 -00.145 +00.025 +00.158 +00.474 -00.026 -00.157 +00.362 -00.259 +00.248 +00.431 -00.396 -00.418 +00.280 -00.365 +00.220 -00.010 +00.465 -00.155 -00.079 -00.050 +00.082 +00.466 +00.128 +00.388 +00.099 +00.324 -00.146 -00.465 -00.504 -00.176 -00.276 -00.099 +00.417 +00.394 -00.121 -00.109 -00.258 -00.259 +00.095 +00.414 -00.407 +00.204 -00.372 -00.400 +00.555 +00.448 +00.068 +00.455 -00.253 +00.415 -00.167 +00.209 +00.285 +00.269 -00.067 -00.181 +00.135 +00.369 -00.079 +00.189 -00.264 +00.149 -00.407 -00.347 +00.053 -00.027 +00.017 +00.234 +00.149 -00.392 +00.244 +00.403 +00.460 +00.440 +00.486 +00.488 +00.369 -00.015 +00.337 +00.512 -00.174 -00.510 +00.026 -00.471 +00.374 -00.358 +00.008 +00.073 -00.495 +00.411 -00.237 -00.260 +00.060 -00.146 -00.121 -00.429 +00.265 +00.346 +00.334 +00.030 -00.374 +00.171 -00.030 -00.391 +00.099 -00.110 +00.480 -00.128 +00.290 +00.180 -00.315 -00.394 +00.380 +00.457 -00.176 +00.301 -00.429 +00.303 -00.126 -00.424 +00.214 +00.145 -00.190 -00.256 +00.440 +00.144 -00.172 +00.319 +00.151 -00.227 -00.088 +00.331 +00.495 +00.333 +00.297 -00.067 -00.387 +00.209 +00.220 -00.496 +00.109 -00.358 -00.250 +00.004 -00.439 +00.044 -00.197 -00.370 -00.153 +00.189 -00.286 -00.437 -00.193 -00.002 -00.178 -00.201 -00.243 +00.239 -00.317 +00.462 +00.559 +00.029 +00.119 +00.343 -00.261 -00.115 -00.202 -00.026 -00.218 -00.315 +00.030 +00.366 -00.230 +00.247 -00.139 -00.177 -00.209 +00.172 -00.021 +00.182 -00.118 +00.173 +00.195 +00.136 -00.334 -00.471 +00.488 -00.044 +00.298 -00.388 -00.202 +00.211 +00.043 +00.371 +00.078 +00.413 -00.054 +00.482 -00.137 +00.145 -00.414 +00.359 +00.001 -00.151 +00.104 +00.370 +00.205 +00.447 +00.088 -00.338 +00.028 +00.344 +00.258 -00.292 +00.018 +00.469 -00.214 +00.016 -00.072 -00.464 +00.066 +00.136 +00.219 -00.292 +00.159 -00.138 -00.446 +00.494 -00.245 -00.127 +00.133 -00.163 -00.270 -00.360 +00.205 +00.378 +00.555 -00.082 +00.270 +00.054 +00.020 -00.201 -00.084 -00.220 +00.029 +00.457 -00.205 +00.293 -00.127 +00.057 +00.235 +00.500 -00.182 +00.034 -00.339 +00.386 +00.312 -00.342 +00.376 -00.434 +00.031 +00.015 -00.084 +00.288 +00.183 -00.351 +00.169 +00.232 +00.053 -00.083 -00.280 +00.458 +00.107 +00.091 -00.226 -00.382 -00.080 -00.165 +00.295 +00.358 -00.433 +00.132 +00.333 -00.172 -00.394 +00.454 -00.291 +00.419 -00.387 -00.411 +00.495 +00.159 +00.120 -00.054 -00.015 -00.164 +00.063 +00.564 +00.406 +00.422 -00.168 -00.422 +00.435 +00.452 +00.048 -00.533 +00.439 -00.462 +00.007 +00.332 +00.397 +00.032 -00.052 +00.223 +00.353 +00.055 +00.177 -00.433 -00.021 +00.300 -00.331 +00.006 +00.013 +00.325 +00.399 +00.361 +00.495 -00.154 +00.362 +00.407 -00.168 -00.290 +00.373 -00.482 -00.496 -00.038 -00.350 -00.451 +00.032 +00.141 +00.394 -00.067 -00.332 -00.158 -00.344 -00.478 +00.398 +00.343 -00.386 -00.079 +00.173 -00.217 +00.363 -00.422 +00.504 +00.199 +00.421 +00.514 +00.586 +00.284 +00.310 -00.336 +00.297 +00.165 -00.184 +00.431 -00.296 -00.004 -00.498 +00.242 -00.364 +00.396 -00.325 -00.196 -00.259 -00.149 -00.152 -00.334 -00.304 -00.067 +00.030 +00.299 +00.160 -00.151 +00.374 +00.162 -00.412 +00.263 +00.035 -00.587 -00.152 -00.181 -00.283 -00.182 -00.400 +00.087 -00.228 -00.188 -00.416 -00.227 -00.446 -00.280 -00.326 -00.267 +00.020 -00.097 +00.059 +00.345 +00.044 +00.229 -00.242 -00.444 +00.031 +00.413 -00.097 -00.153 -00.062 -00.196 -00.501 -00.481 -00.123 +00.030 -00.049 +00.140 +00.367 +00.057 -00.273 -00.362 +00.370 -00.189 -00.090 +00.420 +00.029 +00.076 -00.351 -00.449 +00.482 +00.206 +00.401 +00.028 -00.060 -00.339 +00.101 +00.475 -00.453 +00.452 -00.217 +00.028 -00.156 -00.105 +00.115 +00.244 +00.434 -00.432 -00.116 +00.301 +00.125 +00.111 +00.440 -00.005 +00.422 -00.149 -00.082 -00.047 +00.433 +00.073 +00.011 +00.422 -00.213 -00.089 -00.046 +00.236 +00.064 -00.475 +00.182 +00.111 +00.485 +00.495 -00.342 -00.164 -00.108 +00.273 
-00.420 -00.174 +00.340 -00.036 -00.373 -00.034 -00.425 -00.433 +00.460 +00.497 -00.082 -00.121 -00.050 -00.150 +00.451 +00.458 -00.230 -00.262 -00.133 +00.219 +00.467 +00.432 +00.245 +00.151 +00.043 +00.231 +00.146 +00.201 -00.432 -00.462 -00.026 -00.352 -00.136 -00.186 +00.112 -00.008 +00.279 +00.186 +00.058 +00.240 +00.184 +00.476 -00.383 -00.365 -00.166 -00.429 -00.409 +00.095 -00.194 -00.042 -00.184 -00.224 -00.110 -00.440 +00.427 +00.433 +00.292 +00.073 +00.134 +00.360 +00.111 -00.392 -00.493 +00.475 -00.079 +00.104 -00.057 -00.317 -00.199 -00.470 +00.460 +00.502 -00.503 -00.466 -00.422 -00.214 -00.398 -00.307 +00.416 -00.059 +00.171 -00.258 +00.216 -00.439 -00.198 +00.143 +00.494 -00.406 -00.285 +00.129 +00.455 +00.332 +00.245 +00.451 +00.295 -00.338 +00.094 -00.206 -00.127 +00.384 -00.204 -00.238 +00.290 -00.309 -00.234 +00.428 +00.085 -00.015 -00.295 +00.053 +00.434 +00.377 +00.295 +00.149 +00.438 -00.402 -00.204 +00.433 -00.307 +00.019 +00.072 -00.347 -00.162 -00.186 -00.336 -00.294 -00.005 +00.246 -00.044 +00.278 +00.001 +00.160 -00.465 -00.159 +00.384 -00.088 -00.079 +00.122 +00.473 +00.144 -00.324 +00.406 +00.022 +00.472 +00.054 -00.048 -00.425 +00.382 -00.104 -00.214 -00.111 +00.515 -00.017 +00.377 +00.036 +00.265 +00.499 +00.355 -00.206 -00.152 +00.007 +00.161 +00.296 +00.060 -00.334 +00.418 -00.386 +00.145 +00.045 -00.411 -00.211 +00.219 +00.484 +00.287 +00.196 +00.079 -00.201 +00.326 +00.018 +00.342 -00.316 +00.426 +00.181 -00.065 -00.015 +00.537 +00.623 +00.065 +00.264 -00.374 -00.044 -00.489 +00.319 -00.111 +00.212 -00.407 -00.156 +00.342 +00.239 +00.387 +00.418 -00.490 +00.137 +00.497 +00.449 -00.055 +00.154 -00.266 -00.400 +00.346 +00.199 -00.473 +00.186 +00.120 +00.289 -00.049 +00.020 +00.021 -00.162 +00.220 -00.071 +00.246 +00.385 -00.064 -00.250 +00.134 +00.031 +00.092 -00.025 -00.226 +00.023 -00.017 -00.063 -00.288 -00.003 -00.325 -00.235 +00.165 -00.330 +00.073 +00.532 -00.090 +00.352 +00.165 +00.118 -00.376 -00.084 +00.092 -00.186 +00.081 -00.047 +00.497 +00.040 -00.114 -00.066 +00.288 -00.460 +00.494 -00.059 +00.050 -00.153 +00.531 +00.513 -00.069 +00.222 -00.476 +00.070 -00.083 -00.203 +00.700 +00.469 +00.477 +00.646 +00.071 -00.249 -00.055 -00.161 -00.162 -00.505 +00.297 -00.381 -00.019 +00.297 +00.159 +00.389 -00.240 -00.050 +00.370 -00.288 +00.410 -00.032 -00.236 -00.015 -00.376 +00.360 +00.173 +00.145 +00.333 +00.741 +00.467 +00.460 +00.646 +00.076 +00.174 -00.305 -00.198 +00.325 -00.028 +00.214 +00.328 -00.228 +00.335 -00.173 -00.444 -00.081 -00.384 -00.297 +00.395 -00.434 -00.206 +00.055 -00.198 +00.330 +00.014 +00.214 +00.473 -00.058 +00.129 +00.427 -00.037 +00.578 -00.298 +00.470 -00.453 +00.038 -00.464 -00.140 -00.144 +00.011 -00.424 -00.300 +00.220 +00.290 -00.129 +00.165 -00.199 +00.032 -00.668 -00.460 +00.038 +00.044 -00.466 -00.471 -00.039 +00.186 +00.572 +00.234 +00.433 -00.208 +00.562 +00.346 +00.369 -00.483 +00.214 +00.424 +00.035 +00.256 -00.211 +00.381 -00.319 -00.241 -00.641 -00.685 -00.423 -00.118 +00.005 -00.146 -00.437 -00.666 +00.260 +00.236 -00.012 -00.507 -00.444 -00.239 +00.251 +00.553 +00.220 -00.135 -00.458 +00.124 -00.349 +00.432 +00.131 +00.366 +00.349 -00.358 +00.047 -00.491 -00.624 +00.140 -00.182 -00.636 +00.150 -00.004 +00.039 +00.098 -00.292 +00.185 +00.032 -00.336 +00.206 -00.137 -00.029 +00.484 +00.264 -00.328 +00.428 -00.118 +00.020 -00.489 -00.481 +00.171 +00.444 +00.131 -00.008 +00.171 +00.146 -00.582 +00.254 +00.181 -00.631 -00.117 -00.580 +00.258 -00.516 -00.102 -00.140 -00.172 -00.071 -00.102 -00.569 +00.002 -00.453 +00.011 -00.044 +00.228 +00.192 -00.063 -00.373 -00.288 -00.047 -00.353 +00.386 -00.143 +00.158 -00.256 -00.487 -00.006 +00.001 -00.389 -00.030 -00.004 -00.041 -00.236 -00.204 +00.067 -00.424 -00.427 -00.254 +00.307 +00.265 -00.154 -00.196 +00.297 +00.404 +00.322 +00.033 +00.096 -00.246 +00.170 +00.381 +00.284 +00.254 +00.092 -00.397 +00.167 -00.267 -00.115 -00.302 +00.127 -00.125 +00.096 -00.347 +00.377 -00.373 +00.110 +00.131 -00.119 -00.462 -00.412 -00.290 +00.314 -00.018 +00.051 +00.106 -00.119 -00.144 -00.362 +00.557 +00.267 +00.388 +00.393 +00.034 +00.365 +00.215 +00.129 -00.186 +00.164 +00.271 -00.030 -00.291 -00.378 -00.436 -00.138 -00.443 -00.195 -00.161 +00.393 +00.230 -00.138 +00.461 +00.430 -00.330 -00.066 -00.038 +00.254 +00.389 +00.436 +00.584 +00.502 +00.250 +00.518 +00.295 +00.428 -00.122 -00.412 -00.178 +00.136 +00.200 +00.542 +00.383 +00.324 -00.392 -00.428 +00.013 -00.193 -00.090 +00.299 -00.377 -00.384 -00.341 -00.420 -00.475 -00.169 +00.061 +00.061 -00.281 -00.022 +00.075 -00.203 -00.219 +00.339 +00.140 +00.165 +00.256 -00.309 +00.380 +00.386 +00.001 +00.007 +00.490 +00.077 +00.001 -00.382 +00.119 +00.420 -00.145 -00.487 +00.212 -00.019 -00.386 +00.389 +00.091 -00.286 -00.210 -00.368 +00.323 -00.010 +00.004 -00.488 -00.283 +00.121 +00.632 -00.320 -00.192 +00.041 -00.413 -00.248 +00.215 +00.252 +00.253 +00.086 -00.273 -00.336 +00.159 +00.327 -00.426 -00.486 +00.335 +00.299 +00.024 +00.580 +00.275 -00.298 -00.186 +00.480 -00.223 +00.595 -00.091 +00.400 +00.747 +00.158 -00.308 +00.339 +00.052 +00.100 +00.062 +00.183 +00.272 -00.350 -00.160 -00.020 +00.204 +00.049 +00.136 -00.138 -00.131 +00.200 -00.104 -00.221 +00.086 +00.497 -00.158 -00.259 +00.528 +00.130 -00.106 -00.049 +00.056 -00.074 +00.207 -00.395 +00.137 +00.278 +00.437 -00.303 -00.121 -00.002 +00.336 -00.363 +00.137 -00.333 +00.111 -00.159 +00.211 -00.267 +00.190 -00.401 +00.475 -00.394 -00.162 -00.078 +00.424 +00.098 +00.351 +00.674 +00.603 +00.272 +00.476 +00.482 +00.267 +00.034 -00.460 -00.093 -00.124 -00.445 +00.131 +00.271 +00.057 -00.034 +00.407 -00.305 +00.132 +00.011 +00.015 -00.163 +00.249 -00.303 -00.120 +00.131 -00.294 +00.213 -00.279 -00.171 -00.156 +00.300 -00.379 -00.443 -00.100 -00.464 -00.474 -00.325 +00.116 -00.369 +00.134 -00.471 -00.306 -00.235 +00.300 +00.252 +00.231 +00.207 +00.444 -00.130 -00.261 -00.013 +00.214 +00.512 +00.235 -00.339 +00.232 -00.425 +00.451 +00.413 -00.186 -00.362 +00.176 -00.071 -00.288 -00.412 +00.005 -00.236 -00.219 -00.361 -00.100 +00.416 -00.332 +00.095 -00.320 +00.469 -00.153 +00.412 +00.179 -00.206 -00.225 +00.404 +00.277 +00.492 +00.398 -00.003 -00.355 +00.114 +00.041 -00.450 +00.002 +00.338 -00.299 -00.314 -00.220 -00.089 -00.227 +00.286 +00.175 
