+00.185 -00.501 +00.870 -01.580 -01.534 -01.274 -00.210 +00.383 -01.902 +01.424 +01.477 -01.298 -01.099 +00.577 -01.819 +01.215 -00.200 -01.285 -00.834 -00.684 -00.412 +00.797 -01.365 -00.372 -01.669 -00.443 +00.484 +00.009 -02.098 -00.553 -00.808 +02.189 
-01.257 -00.570 -01.463 +00.522 -00.154 +00.299 -00.984 -02.331 +01.252 -01.888 -00.904 -01.865 -01.431 -01.742 +01.478 -02.203 +00.194 +00.370 +01.408 +00.127 -00.462 +01.757 -00.365 -01.583 -00.360 +00.655 -00.289 +00.166 +00.142 -00.270 -01.133 -01.498 
-01.106 -00.940 -01.714 +01.156 -00.768 +00.576 -01.790 +00.138 -01.600 +01.479 -00.604 -01.079 -00.427 -00.993 -01.373 -00.840 +00.184 +01.149 -01.303 +00.628 +00.712 -01.740 -00.528 +01.358 +00.649 +00.461 -00.547 +00.296 -02.306 +00.013 +00.682 -00.822 
+00.319 -00.903 +01.156 -01.741 +00.973 -00.539 +00.507 -00.368 -01.864 +01.345 -01.547 -00.630 -01.862 -02.591 -01.861 -01.487 +00.104 -00.895 +00.080 -00.432 -01.374 -01.140 +00.232 -00.067 +01.543 -00.682 -00.208 +00.918 +01.858 -00.687 -00.538 -00.651 
-01.544 -01.302 -01.104 -01.164 +00.296 +00.167 -01.813 +00.965 +00.561 -00.813 +00.161 +01.526 +01.477 -00.957 +00.905 +00.739 -00.502 -01.508 -01.374 +01.821 -00.890 -00.608 +00.306 -00.124 -01.724 -00.747 -00.826 -01.185 -00.870 +00.214 +01.326 -01.262 
-00.548 -01.246 -00.302 -01.886 +01.821 -00.538 +00.054 +00.852 -00.529 -01.735 -01.487 -00.890 -00.944 +00.784 -01.433 -00.164 -01.340 -01.363 +01.487 -00.280 +00.040 +00.372 -00.016 -01.267 -02.259 +00.166 -01.003 -00.862 +01.149 +00.970 -01.378 -00.896 
+02.522 -01.751 -01.078 +00.399 +00.816 -00.753 -00.846 +00.679 +00.328 -00.146 -00.620 -01.465 -01.116 +01.061 +02.012 +01.095 +00.723 +00.187 -00.611 -00.726 +00.591 -00.941 +00.018 -02.000 -01.335 -01.489 -00.335 -00.070 -02.256 -00.112 -01.498 -01.728 
-01.262 -00.973 -02.339 +00.370 -00.107 +00.581 +00.141 -00.800 -01.941 -02.119 +01.024 +01.317 +00.915 -00.258 +00.756 -00.309 -01.191 -01.294 +00.526 -00.906 -00.585 -00.535 -01.049 +00.728 +00.519 -01.787 +01.039 -00.817 +00.808 +00.381 -01.779 +01.674 
-01.061 -00.244 +01.303 +00.762 -02.385 -01.164 -00.517 -01.648 +00.770 -01.827 -00.731 -00.745 -00.911 +00.854 -01.361 -01.024 -01.083 -00.668 -01.790 -00.334 +00.594 -01.488 +00.683 -00.278 -01.224 +01.952 -01.490 -00.851 -00.593 +00.085 -01.874 -00.992 
-00.721 -01.330 +00.445 -00.730 -00.659 -01.038 +00.651 -01.952 +01.723 -01.386 -00.305 +00.792 +00.961 +00.254 -01.196 -01.262 +00.722 -00.682 -01.340 -01.237 -00.227 -00.334 -00.729 -01.284 +01.389 -02.492 +00.258 -01.064 -00.359 -00.632 +01.774 -01.715 
